432 64
Shirts -0.32864925 -0.12321942 0.7391926 1.1433803 -0.68784726 -0.8705473 0.8574511 1.1794673 -0.45417675 -0.06905198 0.7310651 -0.10787795 0.24556363 0.28112262 -0.7820519 -0.3004844 -0.008675107 0.29745904 -0.08737096 -0.35359722 0.2895341 0.82255316 0.5342122 -0.8641477 0.14257705 0.30470714 0.21417217 0.47964302 -0.1691844 0.2661427 -0.07025732 0.21556306 0.27705008 -0.833438 -0.57817936 0.051434 0.31847036 -0.47257665 0.5144485 0.015532257 -0.474266 0.1369409 -0.3897187 -0.028290827 0.22393315 0.017133377 -0.32798755 -0.051633395 0.021011883 0.81572044 -0.12579317 0.09388603 -0.48933378 0.27325806 0.5612318 -1.1105636 0.6324363 -0.85860866 -0.3345074 -0.15044981 0.51068324 0.22167449 -0.70051146 -0.4035134
T-Shirts -0.41245684 -0.11619268 0.36941716 0.71979946 -0.41510144 -0.040758826 0.43917048 1.0241129 -0.08015612 -0.33619002 0.6551467 -0.174621 1.1914152 -0.41691902 0.0006587389 -0.6632907 -0.13576959 0.2666118 0.47941566 0.35425872 -0.4613445 0.43552637 0.6549242 -0.5724382 -0.5332864 0.7212822 0.34770116 -0.008112345 0.11749053 0.24035992 1.0349855 0.37981886 -0.33263192 -0.7319724 -0.5855819 0.62343884 -0.28094578 0.18539616 0.74113774 0.5034063 0.20702723 -0.2772253 0.019648606 0.4426547 0.12611125 -0.012404001 -0.025246544 -0.5797606 -0.46956244 0.9003555 0.4341961 0.3965164 0.4439936 0.77294093 -0.39623567 -0.58311766 0.23038833 -0.45747307 0.49780604 -1.1674452 0.6739126 0.23755528 -0.3879483 0.33607686
Trousers -0.6587253 1.0690215 0.40374672 0.09147021 -0.7512567 -0.22158642 0.88391376 1.6052375 0.7034602 0.5512089 0.8534096 0.4224184 1.2790948 -0.017926391 -0.6856392 -0.22031909 0.13252746 0.6072946 0.68342334 -0.69978476 -0.69859195 0.5213051 0.3032412 -0.7375715 -0.3019495 -0.25564477 0.9866851 1.1292626 0.3712171 0.785871 0.31818116 0.74375683 -0.5086992 -0.1113378 -0.9334291 -0.08874956 0.39071342 0.47510242 0.22585316 -0.376965 0.46757835 0.33552444 -0.24131633 0.18202846 0.47324842 0.9099098 0.019355144 -0.51072615 -0.6761643 0.94205195 0.30009013 -0.37509015 -0.6777066 0.54274374 0.14147979 -0.67680717 0.86567044 -0.7220769 -0.21277758 -1.0498865 0.86803454 0.09389349 0.09947377 -0.24294229
Accessories 0.040264226 -0.7691062 0.7558518 0.10079346 0.5170149 -0.85278165 -0.33498877 -0.14944682 -0.12336024 0.51294404 0.3500012 0.49809176 0.5149203 0.44460556 -0.450226 0.23767616 -0.94887894 0.593811 -0.085341334 0.119216815 0.98775357 0.19549729 0.3264908 -0.6265433 0.43043163 0.4491621 -0.9310484 0.272265 0.23232709 -0.33054283 -0.15058355 -0.920225 0.12603177 -0.53259784 0.81945926 0.45699722 -0.2015043 0.13951172 1.2359285 -0.08061212 -0.09956661 0.16292141 -0.42673942 -1.0427572 0.10657895 0.3575003 0.16535132 -0.5597554 -0.17045473 -0.34893364 0.32365945 0.7669169 -0.4851747 0.10858623 0.8604052 -0.41007474 -0.48060855 -0.22856736 0.6436758 -0.17067263 -0.10133477 -1.3828106 -1.12297 -0.21464524
Tumbler 0.03442735 -0.8978771 0.5723432 -0.17119381 0.66327494 -0.744242 -0.06346454 -0.06919541 -0.4225096 0.82703364 0.5774116 0.69646406 0.16024588 0.14917834 -0.21368979 0.32803294 -0.38502958 0.45732304 -0.014105083 0.54789984 0.96462893 0.4904967 0.15329042 -0.21923856 0.19361266 -0.057971966 -0.72969925 0.57013446 0.40045506 -0.47149694 -0.41447493 -0.95701027 0.0150443185 -0.45727944 0.259652 0.63991827 0.33988127 0.099190064 1.4627678 0.30521914 0.4896489 -0.014501929 0.1429798 -1.5381111 -0.076878324 0.84559107 0.3094142 -0.5847869 0.15141739 -0.47257352 0.3314193 0.97527623 -0.4090911 -0.09570524 1.055552 -0.19090188 -0.36172295 -0.5352611 1.0459623 -0.19706634 0.32322666 -1.5430074 -0.92097366 0.3650416
Womens T-Shirt -0.35356078 -0.54793555 2.1467528 1.0087956 -1.0263424 0.019775486 0.04494801 0.2778675 0.94917977 0.17867833 0.14683315 -0.30972862 -0.3532151 -0.5536861 0.036593188 0.5678683 0.8065189 -0.46152642 -1.1082554 0.9915279 0.15443388 0.8836439 0.7188211 -0.1536237 0.61543643 0.48573497 0.5296203 0.45570475 0.34573036 -0.19320823 0.15593635 -0.2749961 -1.8001873 -0.8114723 -0.5613099 -0.35807297 0.34541413 1.5374622 1.3314407 -0.5055293 0.6007614 0.19335769 0.8754319 -1.0067155 1.1931174 -0.3525829 0.46941075 0.87686306 -0.49537858 -1.3198099 0.83862555 -0.6196636 -0.9243766 1.3151325 -0.08397421 -0.80780065 -0.6772062 0.54463184 -0.19110586 0.18647453 -0.51778704 0.20880067 0.7779424 0.19251917
Womens Shorts -0.5071056 -0.30564627 1.1716048 0.28952837 -0.5905525 -1.159665 -0.7422784 -0.04809908 0.2587951 -0.4946356 1.350958 0.47944662 0.83766 -1.4127909 -0.23869976 -0.8042825 -1.014397 0.40390253 -0.68889004 -0.53378797 0.14174584 0.6203631 0.2408889 0.087322265 -0.28651163 0.92007804 -0.19765319 1.0266378 0.057951324 0.19422749 -0.8010969 -0.37126926 -1.1551992 0.68347627 0.42537844 -0.2915052 0.117438495 -0.4159324 0.63406944 1.1087334 0.76974195 0.08383163 -0.12596574 0.68949974 -0.8447008 -0.050347924 1.0004562 -0.14035197 0.3334229 -1.0706494 1.2585514 -1.0685608 -0.5044646 0.86080855 -0.2384309 0.34667823 0.13310017 -0.7998965 -1.0343437 0.92299837 1.1652248 -0.7050609 0.68240315 0.34330034
Apparel 0.45344314 -0.78891784 0.9001248 0.46370313 0.6478584 -0.7303948 0.25446674 -0.21883631 -0.8166398 0.071887076 0.34705335 -0.111235715 0.47422 -0.042212952 -0.007699961 0.34834045 -0.6719429 0.41799092 0.5895515 0.59392524 0.22139168 0.9606084 0.06804167 -0.32684454 -0.116379306 0.74440604 -0.32058603 0.8622454 -0.18314841 0.27135038 0.5150233 -0.8379044 -0.5231893 -0.7924582 0.10957748 -0.3413756 0.06837988 -0.338499 1.290235 -0.20132358 -0.69462067 -0.0015223415 0.18807422 -0.85921955 0.22893958 0.0728888 0.05353959 -0.9518587 -0.11927806 0.10819493 0.43707702 0.6204556 -0.79054457 0.42607686 0.48894542 -1.143774 -0.55946076 -0.3632461 0.37631842 -0.29274032 -0.38627833 -1.3132635 -1.019886 -0.040689837
Womens Tank -0.59307057 -0.48058954 0.76423985 -0.7308384 -0.7894606 -1.0607225 -0.18895702 -0.17589068 -0.5423151 -0.15820035 1.301137 0.9107248 -0.2327219 -0.70737183 0.119752936 -1.3523866 -0.05488756 0.11816599 0.6822845 -0.80023605 -0.71724534 -0.41099632 0.33268052 0.7939502 0.3275012 0.5169556 0.5505893 0.26654583 1.4008902 -0.30570972 -0.98164105 -0.096168526 -0.6610201 -0.2757192 0.009941049 0.15376316 -0.29220372 0.16725588 0.5320134 -0.44604233 1.2910345 0.6800475 -0.9369994 -0.28279486 1.322004 -0.756346 -0.76699966 -0.99013823 0.54227716 -0.32139257 1.2288661 -1.2074442 -0.11573071 0.56355 0.2578177 0.27145886 -0.39097616 -1.5115318 0.40432975 0.28464717 0.8322286 0.19549735 0.31359598 0.6654053
Womens Bottoms -1.1637734 0.44931507 1.1859711 0.71893317 0.31388327 -1.1876745 1.1791754 -0.93539244 -0.097524695 -1.1917168 0.51513624 1.1695237 -0.13326241 -0.27419126 0.6954112 0.38062742 -1.0857589 -0.4696548 0.7974039 0.5480954 -0.24416558 -0.5058683 1.1503696 -0.9002736 0.84214944 -0.030484388 -0.11758832 0.820181 0.3219935 0.18606861 0.25190008 0.25735477 -1.2961849 -0.12661926 0.31485593 -0.38834515 0.0706619 1.2046459 -0.021946197 0.073337175 1.6252464 1.0413806 -0.21017903 -1.5264856 0.2210079 -0.86236763 0.83079606 0.0901066 0.27769575 0.12810118 0.074269146 -0.8432357 -0.43877238 0.4428167 0.91405666 0.8524029 0.09992218 -0.30616662 -0.9062341 0.57807815 -0.35136992 -1.135113 -0.50203204 -1.0738683
Womens Leggings 0.66561157 -0.7118402 1.7189685 -0.58892083 0.41874498 0.88431525 -0.51398486 -0.7796801 -0.30903825 -0.13638064 0.42237568 -0.83566064 -0.8452853 -0.0040286114 -1.5224795 -1.0584818 -0.38141456 -0.779051 -0.7283373 -0.6764573 0.084447086 -0.2564812 1.6508358 -0.5299658 -0.41102675 1.0209646 -0.64216727 0.1598617 -0.22675616 -0.26625356 -0.047743604 1.1591421 -1.2615151 0.68521655 0.3762315 -0.9859464 0.85215455 1.2006677 0.5505399 0.37174606 1.0028241 -0.45548502 -0.6891752 -0.37602398 0.4159794 -0.59020257 1.1912448 -0.7856923 -1.1717515 0.13915148 -0.12869023 -0.0382039 -0.99404967 0.54022235 0.23787095 -0.486009 0.9649865 -0.7739377 0.1457273 -0.019938715 1.416198 -1.2188035 0.98496926 0.5839869
Womens Ss Tops -0.53035825 0.40419084 1.0420578 -0.312604 -0.6700289 -0.68424827 -0.045010276 0.16328113 0.9191898 0.19480689 0.47541422 0.41973993 0.5621272 -0.26379213 -0.8083793 -1.0898314 -0.07310452 0.70770776 0.22951803 -0.7565427 -0.92224604 0.697801 -0.08834713 0.47949582 -0.7752646 1.287865 -0.42901722 0.2976973 0.3878718 -0.58754575 -0.3511918 -0.084689185 -1.5392135 0.26864767 -1.256632 0.19414757 0.8063096 0.09309275 0.29673427 0.032983307 1.1212672 -0.34428126 -0.77672684 -0.93697983 1.1521231 -0.02296463 -1.2327336 -0.37121463 0.8143295 -0.93502814 0.046569977 0.49594718 -1.1915418 0.82254696 0.06554891 0.44224158 0.8506016 -0.4444363 -0.33797893 0.7303574 0.4896564 0.6227528 -0.5785833 1.166466
Womens Sports Bras -0.12286693 -0.41684723 1.2130114 -0.29125866 0.00402535 -0.21072623 -0.46028674 0.21693785 1.204457 -0.88479996 0.83516884 -0.89792466 -0.9691812 -0.33086678 -1.478513 -0.29939 0.24091308 -0.36190075 0.43477887 0.65177417 0.89872855 -0.20394541 0.6903309 -0.3986904 -1.0004728 1.0731745 0.0020504075 0.28659594 0.20100982 -0.5424875 0.27070633 -0.04794811 -1.8294011 1.469893 0.22431931 0.72047687 0.8926881 0.90568894 1.0857599 -0.42641008 -0.03625527 0.56142837 0.05420636 -0.70293224 1.3053306 -0.83724666 0.890837 0.043309595 -0.8902953 -0.5635526 -0.96648514 -0.69792295 -0.308057 1.4233944 1.0841941 -0.7198211 0.705239 -0.09647413 -0.5509264 -1.065453 0.60243165 -0.6723264 1.2600923 -0.56327903
Womens Underwear 1.0543525 1.5065526 1.0039971 0.55611485 -0.26623765 0.2786714 0.8116493 -0.8742886 -0.5054611 0.46078837 0.94328 0.3265047 -0.061369494 -0.6037801 -0.4699303 0.13708866 -1.0304114 0.14832553 -0.14270361 -0.040906128 0.525092 0.06547341 1.0325844 -0.42417055 0.43498254 0.58067256 0.29156354 -0.060995214 -0.52709836 -0.27720568 0.56911945 -0.071458325 -2.016376 -0.18716101 -0.39895612 0.38450193 -0.71947473 0.879129 -0.6083977 0.243493 1.0446919 1.3620999 -1.3316318 -1.4856868 -0.38870648 -0.58153445 -1.7740839 -0.9138784 -0.28659806 -0.8202008 1.0345861 0.38540265 -0.15365316 0.6880639 0.8685428 -0.80520487 -0.34099317 -0.07961474 -0.62053734 0.24762213 0.5227306 -1.0151676 1.1048441 0.8168729
Mens Hoodie 0.5919461 1.3310771 1.614591 -0.46112466 -0.5486549 -0.9886392 -0.7105551 1.2041659 -0.12898456 -0.38438427 0.47111154 1.096159 -0.48194647 -0.720282 -0.36485946 -0.5262729 -0.37567395 0.4076745 -0.7264733 1.067757 0.7578977 -1.0843815 1.5022209 -0.9989109 0.13511753 0.88905966 -0.7909814 -0.08321738 0.98129284 -0.37458542 -1.1881137 1.1600338 -1.08453 -0.6154813 0.841343 0.22328481 0.7366732 1.1012151 -0.57517016 0.5078954 0.100667946 0.9364727 -0.061949924 -0.54998755 0.56251824 0.51124716 -0.85179967 -0.6193702 0.06413637 0.43749607 0.29233426 0.76349056 0.021152109 1.0960295 0.8127521 0.9384862 -0.09650105 0.7349489 0.65580183 -0.7506533 -0.3540769 -0.7549101 0.7619151 -0.25238305
Womens Long Sleeve Top -0.18110134 1.0348626 2.0017126 0.010012844 -0.8198922 -0.7327208 -0.0042016916 -0.8175238 0.10915582 -0.43168938 1.2390857 0.6657024 -0.32330364 -1.1740257 -0.06579378 -0.9907781 0.30867767 -0.17497163 0.628965 0.12984663 0.23121592 -0.039117746 0.4795533 0.7338187 0.086486325 -0.082477845 -0.8207758 0.38828677 0.90059483 0.38287693 -1.0642883 0.8266179 -0.489015 0.031337928 0.49263728 -0.8696148 -0.8744933 0.56478435 1.4350414 0.37819412 1.1088761 0.23222253 0.2539966 -1.6927338 -0.32210517 -1.132591 -1.0682279 0.043077577 -0.20599496 -0.5534418 0.799317 -0.36332262 0.4116812 -0.13434736 0.7836547 0.4029371 0.2904673 -0.78242415 0.7141966 -0.9674508 -0.15173075 -0.37250257 0.61969703 -0.39492035
Mens T-Shirt -0.88668114 0.80856764 1.692725 -0.742713 -0.12072707 -0.48107693 -0.4515689 0.6975943 1.4300562 0.7702834 1.2668356 1.0590409 0.01816468 -0.7506452 -1.3975358 -0.3148905 -0.31109378 0.5868785 -1.0409493 0.5106479 -0.0948512 -0.60692614 0.6839359 -0.40943575 -0.2074319 0.537903 -0.7094451 0.73436993 0.084591314 -0.10651648 -0.7321412 0.4101196 -1.5036522 -0.3250793 0.67394316 0.21380733 -0.0001939621 0.76576954 0.690513 -0.045459226 -0.16000605 1.0455279 -1.1981165 -1.8393837 0.9283113 0.0029930302 0.23784143 0.84570193 -0.22557108 0.64629644 0.34916526 0.8518756 -0.4403929 -0.14559346 0.43961033 0.9226476 0.5342438 0.6229578 0.76360273 0.85744387 -0.8006431 0.02985397 -0.58065754 0.30487746
Womens Crop Tops 0.5161129 0.66944146 2.2981918 -0.14588438 -0.66089666 -0.44112036 0.13682021 -0.37100434 0.64635086 -0.4609225 1.7933509 0.2587491 0.4582402 -0.59268504 -0.0774857 0.0027017675 0.31479898 -0.39038807 0.24490148 0.6145563 -0.014439965 -0.09442605 0.9778457 0.39673528 0.23706992 0.016889991 -0.3248559 0.20255962 0.5779856 -0.024049941 -1.005837 0.11535583 -0.9276049 -0.56804323 0.032640044 -1.6979886 -0.6089203 -0.049449876 0.8105952 0.29856768 1.0833601 0.7115502 -0.1010901 -1.9103522 0.50060433 -0.57324016 -0.7779418 0.046386212 0.037754964 -0.8173501 -0.06804562 -1.0749209 -1.2169724 0.042261362 0.7061261 0.71465963 -0.28624335 -0.7104457 0.952925 -0.34630877 -0.52478445 0.2099861 0.48012242 -0.9892331
Merch 0.8958018 0.15556887 -0.092740096 -0.14505205 0.47859862 -0.22727555 -0.10115054 -0.010846833 0.0035745527 0.2819253 0.62384176 -0.3089757 -0.16047701 0.6698578 0.008173462 0.7261056 -0.8878668 0.56790155 -0.012537878 0.87404525 0.45737547 0.8633201 0.7993066 -0.17960624 -0.6932964 0.94908184 -0.29267138 0.5057693 0.07015829 0.72784626 -0.4177035 -0.5535121 -0.13661836 -0.8079366 -0.79308623 -0.49942574 0.46587333 0.7434741 1.3642273 -0.36108187 -0.84500813 0.24871142 -0.07824391 -1.3476877 -0.4218822 0.48264048 -0.18196839 -1.0356619 -0.43441617 0.07157753 1.0445044 -0.30818355 -0.3788564 0.7183667 0.7613845 -0.187012 0.24651201 -0.848416 0.1651931 -0.53018486 -0.3246356 -1.2520374 -1.0398692 -0.80766016
Mugs 0.31161636 -0.38068742 0.8884064 0.31285647 -0.01589512 -0.7526775 0.4911271 0.16749267 -0.81071526 0.673024 0.5042091 0.29835954 -0.078467034 0.5289656 -0.15567861 0.6829431 -0.36499834 0.5660392 -0.10230958 0.42156386 0.13933896 0.8266769 0.18543804 -0.4135599 -0.49866587 1.040941 -1.2323946 -0.13883628 -0.79482824 -0.40661728 0.2257025 -0.6136093 -0.70817566 -0.51205117 0.43075877 -0.042255647 0.82994634 -0.07303735 1.3043587 -0.5773406 -0.3029879 0.61567235 0.83271796 -0.28847584 -0.1820451 -0.04426078 -0.13262583 -1.0981206 -0.022381118 0.26410815 1.3693554 0.40825653 -1.0505766 0.20745888 1.253555 -0.059650898 -0.096947655 -0.4988053 0.015094721 -0.4283921 0.049207967 -1.9955603 -1.2069513 -0.20080058
Bundle 0.1636041 -0.0002988642 0.6653063 0.3621559 -0.029904636 -0.55819505 0.6186718 -0.21632975 -0.4806535 0.77529365 0.6581405 0.0006433714 0.06662794 0.19686344 -0.09357299 0.93823093 -0.069033794 0.90836227 0.19747873 0.58177924 0.31677702 1.3585645 0.044869307 -0.4084395 -0.27172154 0.3999224 -1.1545612 -0.027858892 -0.583008 -0.040425025 -0.6645775 -0.33542547 -0.57830703 -0.66373986 0.35119104 -0.035127874 1.2625284 0.31418756 1.2768501 -0.8610056 -0.20357983 0.63839316 0.5904087 -0.67608786 -0.0096976925 0.8489163 -0.68913513 -1.0169622 0.12891085 0.30697528 1.2724578 0.19639787 -0.6734516 0.031068664 1.302699 -0.13760409 -0.53317654 -0.332735 -0.011826927 -0.53160155 0.05649834 -1.9254965 -0.7959599 -0.21198334
On-The-Go Drinkware 0.17683794 -0.6839592 0.6234554 0.4922755 0.9284639 -0.8060452 0.60132873 -0.1659302 -0.86858445 0.9227263 0.94119006 0.4151527 0.06795458 0.23932508 -0.2879696 1.0229205 -0.2996863 0.9672337 0.118535854 0.7709724 1.250908 1.1940681 0.95679337 -0.34151974 0.23774558 0.33877468 -1.0681156 0.5992689 -0.6286283 0.33403313 -0.07624655 -0.30729067 -0.14340013 -0.32362843 0.010114675 -0.5419881 1.1324943 -0.42183083 1.9685256 -0.2244685 -0.56442416 0.9015903 0.49336547 -1.0622259 -0.11898042 0.46638224 -0.10596988 -0.22490068 0.09408278 -0.15227063 0.34367004 -0.124519005 -0.3714007 0.047576133 0.9466046 -0.12652507 0.16245063 -0.5363975 0.13137944 -0.69745773 0.24811234 -1.9050235 -0.96858776 -0.27847248
Coffee 0.6944745 -0.49750063 1.0775303 -0.6299601 -0.4228774 -0.71487755 -0.22153279 0.69320697 0.93696463 -0.07209198 0.81128603 0.058117453 1.3286092 0.35434008 -0.4911788 -0.29221314 -0.6993808 0.99664253 0.5598151 -0.07597802 0.5099823 0.37072238 -0.24574484 -0.24379314 -0.31216735 -0.079879306 -0.7098029 -0.36231297 0.8272737 0.84584695 -0.015630757 0.56860435 -0.55449843 -0.23893468 0.6906217 0.37565738 0.42341098 1.3047286 0.68242705 -0.5044325 0.6714361 0.415079 0.74961746 0.038112227 0.60372275 -0.3226519 -0.005430164 -1.2646528 0.36937764 0.6636884 0.9927585 0.30923426 -1.0678965 0.07103573 0.5792956 0.4736037 0.05993586 0.045620542 0.21294315 -1.098515 0.5055489 -1.1435701 -0.50944763 -0.6517332
OTG 0.7145672 -0.2470587 0.73177725 -0.25757104 0.7183334 0.06143657 -0.028440889 0.46043345 -0.2219653 0.86077404 0.8964892 -0.0049678367 0.16287743 0.2213538 0.07970178 0.5942173 -0.9374356 0.70527935 0.09216174 0.32864216 0.78002596 0.9714681 1.0048336 -0.5109976 -0.24941684 0.93843883 -0.5617489 1.0659982 -0.5246896 0.73960656 -0.5074973 -0.024785647 0.08398814 -0.5780895 -0.7591406 -0.12841526 0.55391455 0.9544732 1.1698669 -1.0767777 -0.7026401 0.71809465 -0.52056944 -1.4792747 -0.18351477 0.59802777 0.040750228 0.028747708 -0.54682374 -0.008717875 0.32548565 -0.7446522 -0.72159666 0.5539629 0.016424589 0.28543937 0.31053197 -0.99658406 -0.2470647 -0.8747855 -0.25158074 -0.7270869 -1.1218714 0.012011621
AW24 -0.48917732 -0.29738173 0.12217748 0.29484275 -0.44379476 -0.07405711 0.44421822 0.8223516 0.04536803 0.43748227 0.06326637 -0.23639561 0.640315 0.14943533 -0.58578336 0.15375744 -0.023705335 1.0839387 0.66430914 -0.3578102 0.3789661 0.3782126 0.43366292 -0.30452478 0.36174884 -0.114945285 0.3699179 0.48069817 0.8629357 0.05685707 0.030699437 0.010191875 -0.2603951 0.06516891 -0.7970175 -0.35327023 0.13650297 -0.08227078 0.85805446 -0.5150872 0.43280175 -0.28226566 -0.07513741 -0.35509798 -0.8914267 0.4541387 -0.22444859 -0.37098503 0.24923666 0.72786784 0.089543395 -0.09482445 0.07010351 0.54940903 0.02039527 -0.7884348 -0.17423083 -0.24407595 0.27876455 -0.45044106 1.1140963 -0.097676165 -0.53462225 0.07042212
Stay Wrogn -0.35070053 0.1532696 0.19481245 0.42438984 -0.545571 0.061728716 0.2589131 0.8772103 0.29360148 0.054054223 0.049982525 -0.09484267 0.77659297 0.20461027 -0.5960636 -0.037518933 -0.11512794 0.8440104 0.19294211 -0.5302208 0.20273736 0.67247546 0.44040203 0.017664088 0.1880658 -0.27492636 0.5080995 0.7648541 0.7330997 0.22897016 -0.12665802 0.017391698 -0.61856854 -0.4088646 -0.2041214 0.08908325 0.18460338 0.5510524 0.6361923 -0.3333116 0.6833757 -0.3212723 -0.028767927 -0.20194758 -0.3103032 0.49359444 -0.035394717 -0.34393752 -0.14148855 0.6975275 0.14562058 -0.010386029 -0.09967214 0.74033374 0.42342168 -0.2321608 0.031379197 -0.52598614 0.3927718 -0.5529711 0.83684635 -0.40759236 -0.20752193 -0.0938907
All -0.300778 0.12978716 0.18969761 0.4387267 -0.519232 0.023035422 0.26432756 0.82713795 0.23199242 0.03176024 0.03408028 -0.11439414 0.7088332 0.24574994 -0.59536356 -0.04600746 -0.09976782 0.79630417 0.15205094 -0.5380457 0.21305798 0.6873189 0.38232404 0.023893483 0.19215089 -0.28238556 0.46866357 0.77497417 0.6907732 0.23405558 -0.2017218 -0.0134025505 -0.5827807 -0.43156055 -0.18441468 0.07043849 0.18944487 0.5101733 0.62724364 -0.3357609 0.62395304 -0.3236212 -0.01924183 -0.23997921 -0.28740826 0.43845063 -0.042210344 -0.31790164 -0.09532711 0.65000886 0.12739326 -0.0004450023 -0.13870378 0.6838368 0.47126943 -0.23684761 0.06786103 -0.53841263 0.3522626 -0.46151924 0.761234 -0.4054579 -0.2500543 -0.12537515
NewArrival -0.32608768 0.14786531 0.19086424 0.40226063 -0.5515628 0.032187585 0.2761418 0.8549172 0.25903282 0.076708026 0.08151195 -0.074385636 0.74477947 0.19440436 -0.5988894 -0.024878595 -0.08630736 0.8178994 0.18106164 -0.53813285 0.2049928 0.6562766 0.4248398 -0.0031069801 0.22083181 -0.2940673 0.4816974 0.7637145 0.71315503 0.23671143 -0.1559754 0.038561556 -0.570586 -0.39719343 -0.2067582 0.07114171 0.20690088 0.52259225 0.6296021 -0.31461555 0.635144 -0.29346582 -0.02644503 -0.2232108 -0.2905378 0.4985632 -0.04102782 -0.30576602 -0.12318784 0.68122685 0.1451184 0.019935096 -0.13569692 0.71531975 0.44018817 -0.24696454 0.047909863 -0.4892834 0.3729479 -0.51047266 0.8089236 -0.39378214 -0.20135301 -0.11968174
Topwear -0.21528713 -0.13021451 0.32469097 0.61203146 -0.4310136 -0.13904859 0.36918348 0.9988983 -0.11507973 -0.1440952 0.20906118 -0.32788324 0.67308956 0.3540583 -0.34967393 -0.063876174 -0.27590144 0.7100333 0.20462961 -0.10247967 0.12647179 0.82520604 0.4051296 0.07277849 0.045170467 0.19220924 0.38483912 0.7149702 0.30220768 0.023791295 -0.0596002 -0.3116956 -0.6299844 -0.82037127 -0.17691897 0.26045057 0.04998702 0.29263887 0.8651704 -0.20226814 0.3048483 -0.39198858 -0.18013611 -0.16131455 -0.24466617 0.13833347 -0.041004833 -0.6243201 0.034968447 0.95774454 0.08718838 0.21377237 0.058256146 0.86043066 0.25833732 -0.19832553 0.18128018 -0.90914255 0.37432075 -0.37159422 0.73762316 -0.560106 -0.43109843 0.028897129
Disc -0.3316914 0.16228324 0.18729965 0.4179442 -0.51290935 -0.0017871979 0.31328148 0.8785443 0.21589996 0.07899898 0.051560752 -0.055865686 0.6798233 0.27134287 -0.5897964 -0.045991637 -0.08979085 0.7977075 0.21509524 -0.49607053 0.17341974 0.65549856 0.3645898 -0.027064757 0.18560052 -0.2699659 0.4849471 0.770944 0.6805727 0.23774566 -0.19129942 0.0011824322 -0.5574447 -0.4372298 -0.1909373 0.04810211 0.15225331 0.48287812 0.60135335 -0.3336446 0.608381 -0.300282 -0.043917354 -0.2237299 -0.2774273 0.45274794 -0.035785712 -0.33660874 -0.12483523 0.67507035 0.145468 -0.032969892 -0.11963653 0.63482356 0.43205723 -0.25022706 0.111802615 -0.5410554 0.3318711 -0.4691249 0.7717064 -0.36380255 -0.2621297 -0.11266069
Cotton -0.3193431 0.21498512 0.18649776 0.40625247 -0.55022573 0.03909992 0.29686844 0.8516086 0.2820985 0.045104958 0.07645479 -0.078399636 0.70416415 0.2610621 -0.64534277 -0.036778096 -0.092613176 0.8071116 0.18314987 -0.5481418 0.19668517 0.672358 0.39965045 0.029309483 0.20158617 -0.29870042 0.4753214 0.7844126 0.6649432 0.23337452 -0.20123315 0.008456209 -0.5992356 -0.42190468 -0.17958069 0.050644834 0.20830286 0.5221859 0.61019605 -0.34850144 0.61112213 -0.2908195 -0.05543734 -0.24951914 -0.2822117 0.47504944 -0.0688158 -0.31631285 -0.14366663 0.6968326 0.1135856 0.01329445 -0.15680277 0.6761041 0.46159315 -0.22450714 0.08675508 -0.5392337 0.35663652 -0.47437966 0.761847 -0.40812317 -0.21286891 -0.15489028
Topwear New Arrival -0.20457265 -0.1223978 0.3001698 0.5868396 -0.41596743 -0.15232913 0.36740538 1.0065936 -0.120585494 -0.12551084 0.1761954 -0.33606562 0.6529832 0.3882192 -0.37640873 -0.068383306 -0.2644112 0.71181935 0.21238545 -0.06705526 0.105292305 0.85229236 0.34535405 0.056764472 0.038655005 0.18285038 0.36926875 0.71070385 0.3031707 0.068366855 -0.06558578 -0.29700473 -0.64859563 -0.81944376 -0.14951292 0.25476557 0.027395574 0.31338203 0.83584976 -0.17393571 0.304696 -0.41802102 -0.14648601 -0.15756865 -0.2242201 0.13121417 -0.03196988 -0.6361374 0.023526706 0.9497805 0.1046184 0.20182629 0.039120823 0.8439129 0.27723733 -0.1754376 0.20220967 -0.8988583 0.3596764 -0.35802183 0.72250456 -0.5484879 -0.45566007 0.012184026
Short Sleeves -0.18050689 -0.08278935 0.33293557 0.64741445 -0.42903444 -0.17957944 0.3446319 0.9917587 -0.12925974 -0.14049134 0.16146731 -0.33702883 0.6167452 0.39683908 -0.3968457 -0.09040337 -0.26197103 0.6796642 0.1443999 -0.11143176 0.15551533 0.83863926 0.3868328 0.03252726 0.02970259 0.18239073 0.36984858 0.6856678 0.27675307 0.08680809 -0.114530854 -0.27509108 -0.6334864 -0.8426042 -0.13601 0.26055834 0.04921442 0.33140895 0.8218727 -0.16050379 0.27872813 -0.38704315 -0.1716369 -0.150661 -0.19674732 0.11723539 -0.036390327 -0.5698834 0.05142852 0.88791984 0.05882675 0.20564632 0.014259046 0.8317953 0.34646893 -0.19910027 0.21057534 -0.85128987 0.3209742 -0.3428866 0.68852913 -0.47039795 -0.4328705 0.022298183
Mug 0.71009445 0.84528905 -0.34478676 -0.1450748 0.15019646 -0.11994652 0.44459647 -0.17481776 0.053243432 -0.130365 0.9969856 0.17217237 -0.10940038 0.18869036 -0.4524405 0.39705136 0.029508958 0.47650722 0.17463295 0.9832487 -0.08898395 0.664862 0.8234277 -0.06279483 -0.83548254 0.91962546 -0.47829333 -0.28492397 -0.16389063 0.7926255 -0.16467737 0.20861985 -1.2495942 -0.5096711 -0.32721695 -0.53020155 0.42616343 0.6940744 1.4477191 0.018769257 -0.18404357 0.5298069 0.42598724 -0.566418 -0.047502268 -0.037601914 -0.3542842 -1.334086 -0.25670335 0.39542705 1.3403081 -0.2975135 -0.41781148 0.45449802 0.9972396 0.2884624 0.1182819 -0.6026646 0.2863945 -0.57186395 -0.006019914 -1.1821419 -0.27373463 -0.8461305
Society of Strong Coffee 0.5497833 -0.22218315 0.6486408 0.1466768 1.0510373 -0.20805684 0.056621213 0.123953804 -0.23487434 0.5869103 0.49566758 -0.33145267 0.4212419 0.19250235 0.18849252 0.047424577 -1.1352137 0.50681317 0.2103977 0.6321633 0.3044615 0.9382302 0.48050183 -0.27947637 -0.19434302 0.40169793 -0.046531595 1.4984992 0.1459831 0.74905485 0.034693882 -0.5382728 -0.15753463 -0.5568318 -0.46066508 -0.60547775 0.20645793 0.26839048 1.0282611 -0.28806248 -0.79979134 -0.06686411 -0.14691572 -1.4770051 -0.09332708 0.5395066 -0.12329368 -0.3088506 -0.49485677 -0.17232767 0.5499023 -0.3104956 -0.105008006 0.73110414 -0.05605457 -0.25848156 0.2181943 -0.9919849 0.49399135 -0.5483447 -0.14277655 -0.9650411 -1.0975547 -0.08882342
Ice Breaker 0.8609701 0.2028807 -0.17516555 -0.5035841 0.268563 -0.102835536 -0.14446054 -0.05277875 0.17787257 -0.33118936 0.9065572 0.37464002 0.29606798 0.26136824 -0.22884943 0.2988222 -0.47992313 0.8308901 0.91563344 0.33411708 -0.08764531 0.65435433 0.3189271 -0.061744165 -0.3292108 0.8675429 -0.42683947 -0.34786305 0.05491924 0.56502604 -0.20595439 0.14421678 -0.59651333 -0.301184 -0.19575308 0.10863609 0.17094317 1.4413972 1.1006474 -0.47606587 0.17053206 0.35402042 0.37153763 -0.6849766 0.3316775 0.119448856 0.20091252 -1.1958973 0.019530866 0.5455116 0.9296193 0.023093091 -1.1110821 0.44628957 0.65328944 0.20829251 -0.16514897 -0.3928683 0.44927946 -0.83959883 -0.02731598 -0.7335992 -0.34085476 -0.78482836
Oversized -0.23329097 -0.04345845 0.3413484 0.6123643 -0.4387363 -0.07094222 0.32665431 0.9723137 -0.06580408 -0.18807201 0.27767813 -0.283805 0.6868997 0.29150513 -0.3230329 -0.1415983 -0.22171648 0.6780936 0.15290776 -0.113770425 0.088482454 0.7768898 0.48389778 0.109777816 -0.00079808495 0.17763916 0.3425094 0.6804896 0.19890586 -0.02235074 -0.005861023 -0.28730297 -0.6608255 -0.81435156 -0.17476138 0.29092813 0.08752239 0.3626473 0.8472437 -0.17158392 0.30324247 -0.3847486 -0.18474256 -0.18836007 -0.20494184 0.13313855 -0.07848043 -0.52413553 0.0010890195 0.92306805 0.032511 0.332412 0.088895075 0.90949553 0.29644924 -0.16881818 0.15652762 -0.85692596 0.43507156 -0.3697934 0.686603 -0.5578758 -0.37977964 -0.006504769
Printed -0.19614197 -0.07424684 0.28544557 0.6333918 -0.43670046 -0.15376127 0.40090218 0.97353697 -0.12964082 -0.15711801 0.2276621 -0.30269605 0.6067769 0.34281066 -0.37360507 -0.08733486 -0.23402022 0.6793491 0.19799896 -0.07235964 0.10198801 0.7834489 0.4061019 0.015349144 0.022570826 0.15742886 0.33211774 0.6759935 0.25106525 0.054740638 -0.049733486 -0.24052212 -0.6170386 -0.8121614 -0.17210433 0.21179715 0.027095342 0.25041068 0.83849216 -0.15208487 0.26927206 -0.40368688 -0.16159509 -0.14491497 -0.25726497 0.10326768 -0.077807605 -0.5579946 0.04736761 0.93140846 0.03911443 0.22997943 0.04086749 0.7981539 0.2658659 -0.20871086 0.16723976 -0.8654091 0.3763598 -0.35675353 0.71504045 -0.5014705 -0.41852224 0.019672988
Golf 0.4829407 -0.32350576 0.5296118 0.00055008614 0.48937795 -0.6890887 -0.22736603 0.043102246 -0.11444936 0.06546115 0.44094318 -0.22765885 0.41427296 0.26620546 -0.08357856 0.19005212 -0.90370536 0.47563723 0.33313218 0.44239017 0.49812457 0.6555171 0.4765112 -0.07854268 -0.1940171 0.8505529 -0.08386362 0.8413434 0.4120817 0.20597722 -0.26154017 -0.9124087 -0.0011409718 -0.7887985 -0.24619286 -0.42850044 0.015594706 0.3625429 1.0746002 -0.33010808 -0.55643225 -0.17038527 -0.3191824 -1.2317486 -0.0035330711 0.54229367 0.031078206 -0.9286626 -0.191828 0.044225864 0.52170056 0.41239515 -0.3174127 0.7394388 0.60502076 -0.8291861 -0.16884257 -0.51885325 0.37387285 -0.33259642 -0.3384476 -1.2249169 -0.8709753 -0.6121571
created_by:product-service 0.28961915 0.009071648 0.68517286 -0.47451517 0.5063656 -0.28336406 0.05083457 -0.47733918 0.07759971 0.3543723 0.8492411 0.6616931 0.30170107 -0.7952215 -0.31933084 -0.0417694 -0.4106979 0.23522913 0.3171165 0.35762933 0.13968375 -0.011320734 0.29839998 -0.7546283 -0.14096034 0.7984848 -0.47042203 0.30242163 0.69646025 0.41554788 0.097749956 0.33110482 -0.60679656 0.2745215 -0.27192768 -0.34335718 0.034462564 0.32706994 0.56467706 -0.15995489 0.38031328 0.28558204 -0.49044013 -0.64537454 0.64527404 0.14274576 -0.09747412 -0.6322807 -0.55639434 -0.57645446 0.18686704 -0.014217484 -0.48634267 0.0782489 -0.13046001 -0.26469904 -0.15460147 0.08329792 0.015610888 -0.3532142 -0.33980268 -0.046861213 -0.14474532 0.24299125
Pet Accessories 0.51475227 -0.43164438 0.47868365 0.0750957 0.42015243 -0.5071182 -0.10969879 -0.24917266 -0.30265367 0.036502227 0.24402331 -0.18047935 0.1740833 0.16673853 -0.16169202 0.24491532 -1.0209624 0.5013522 0.2788164 0.53377676 0.5060983 0.5948736 0.42279705 -0.26187155 -0.42199633 0.82693255 -0.23886402 0.73436075 0.36798 0.21233514 -0.22719613 -0.7577298 -0.0126779685 -0.71058536 -0.15123656 -0.40169057 -0.068697006 0.3225169 1.0525535 0.018927582 -0.42585316 -0.1539242 -0.332274 -0.9241526 -0.10315599 0.4320903 0.068897404 -1.0926613 -0.45841247 -0.02085296 0.52643466 0.511 -0.17683049 0.5786031 0.51744384 -0.7851867 -0.14332105 -0.46334085 0.3427393 -0.39004636 -0.087061234 -1.2246432 -0.7459004 -0.31908795
all-products 0.322607 0.03596452 0.67464894 -0.35243434 0.47186095 -0.36470714 0.10416065 -0.5786075 0.012221823 0.3378081 0.8106339 0.6120894 0.28443876 -0.7862506 -0.22744031 -0.025993273 -0.34938064 0.12143706 0.2915851 0.39926228 0.19387029 0.0763819 0.35595116 -0.7861779 -0.11791937 0.7830936 -0.4558974 0.32055694 0.724785 0.4894729 0.085736796 0.30267245 -0.5690411 0.29866782 -0.22948389 -0.41416332 0.011095783 0.32977468 0.5851224 -0.156695 0.296488 0.3150941 -0.45627207 -0.6178202 0.5757082 0.1663271 -0.07971343 -0.5730693 -0.58477664 -0.5938342 0.18390311 -0.110412255 -0.54735345 0.048256047 -0.14676431 -0.26608405 -0.16434824 0.121383905 0.06658039 -0.41643867 -0.31522188 -0.081065066 -0.1814128 0.25753066
Womens 0.05661428 0.31432438 0.67298317 -0.052419376 0.42182964 -0.4947315 0.21497907 -0.50337 0.14935465 0.29482162 1.0480274 0.9140581 0.19391426 -0.6247178 -0.34924325 -0.14184764 -0.2037931 0.14317417 0.13618705 0.35628402 0.22508714 -0.14725256 0.4850407 -0.7996876 -0.18304524 0.57027096 -0.62485206 -0.023060204 0.8396196 0.37153932 0.20407008 0.47521967 -0.73537153 0.57752746 -0.34536728 -0.4835404 0.092263296 0.060381066 0.47823492 -0.100120775 0.65190405 0.41857708 -0.26581907 -0.5632956 0.46906066 0.06278572 -0.4265634 -0.53007704 -0.64745796 -0.604412 0.46235362 -0.17248377 -0.55946314 -0.010846382 -0.017894203 -0.18454842 0.098844364 -0.19944566 0.0586277 -0.30096596 0.09562549 -0.13450652 -0.00930997 -0.042369556
SS24 0.41258186 -0.07636353 0.75300634 -0.51362485 0.3671416 -0.47125253 0.19037205 -0.31633535 -0.14957608 0.23211928 0.9351229 0.5583212 0.31844932 -0.7089279 -0.32035968 -0.09442254 -0.49046504 0.119505145 0.3811945 0.4949881 0.18818769 0.04202066 0.3147779 -0.6831465 0.08223046 0.77339214 -0.43739536 0.52272815 0.59920126 0.4813161 0.062817186 0.26167512 -0.44302857 0.35397536 -0.23005176 -0.503824 -0.05327305 0.564328 0.71947217 -0.11375049 0.29188383 0.3415361 -0.38705364 -0.7106875 0.47677988 0.1806313 -0.08885555 -0.46702355 -0.39138937 -0.74852467 0.20482028 0.08403112 -0.5169655 0.17470028 -0.07519139 -0.15740801 -0.24882537 0.19072282 -0.018435566 -0.26522824 -0.4203218 0.03261138 -0.309732 0.25813478
seamtype:C&S 0.32690707 0.2414095 0.89932245 -0.38508815 0.3141946 -0.36042798 0.54619336 -0.3419632 0.02070396 0.30774269 1.1445774 0.7273433 0.049120184 -0.691431 -0.32641608 -0.04772125 -0.095730156 0.09034298 0.20338543 0.33555475 0.2540075 0.22042349 0.32644618 -0.9398628 -0.15794864 0.4202162 -0.5055352 0.32565802 0.7069631 0.41765326 0.069671825 0.41026604 -0.59066516 0.33128488 -0.2552187 -0.57998604 0.09624651 0.1446277 0.37027538 -0.04183333 0.4535869 0.5666664 -0.24635667 -0.5941904 0.64209884 0.10352284 -0.22066602 -0.5830588 -0.5418202 -0.65489775 0.098564856 0.08982968 -0.4513358 0.02225961 0.14949946 -0.33171764 0.13801916 0.06510014 -0.10410928 -0.34149927 -0.33728603 -0.020244503 -0.033934586 0.119031176
segmentation:Rest Day 0.36236125 0.15488246 0.7575469 -0.2999638 0.029894358 -0.5838433 0.6460151 -0.26275644 -0.1944041 0.27691954 1.0211817 0.6290506 0.08126976 -0.799175 -0.37170118 -0.095321916 -0.17553034 0.04336689 0.20565735 0.44730154 0.25172666 0.2273252 0.49983028 -0.8831626 0.021374378 0.4868093 -0.4280612 0.5026996 0.6330974 0.46791512 0.07920727 0.5460509 -0.51363695 0.4279879 -0.2755029 -0.5803181 0.18417056 0.2997713 0.49810684 -0.09825795 0.4233731 0.61615497 -0.19519857 -0.45914593 0.54549366 0.14901462 -0.30493042 -0.37853035 -0.3894702 -0.76180637 0.2176733 0.12570995 -0.46637037 0.013974159 0.12581359 -0.2485159 0.042482667 0.198469 -0.041473128 -0.33951738 -0.36104715 -0.11043052 -0.13619591 0.20787732
tier:2 0.112345845 0.16415533 0.6360705 -0.013498352 0.14354715 -0.6879903 0.45988417 -0.25547847 -0.1668724 0.27532026 1.1095514 0.7431496 0.19971603 -0.54572266 -0.3873709 -0.28506956 -0.20422152 0.03864597 0.105260104 0.4413 0.23336399 -0.0014652078 0.4854702 -0.6788324 -0.04311177 0.6181898 -0.5836044 0.18219902 0.6888352 0.42863807 0.18392983 0.4139735 -0.618372 0.78182834 -0.3927085 -0.64451206 0.0811423 0.1815555 0.70706326 -0.2100688 0.44337478 0.5339707 -0.17371252 -0.5594824 0.33680618 0.04714127 -0.4723237 -0.24406044 -0.44374177 -0.7340808 0.57690346 -0.06852624 -0.5906016 0.027694305 -0.0052987314 -0.18023176 0.023803126 -0.06998487 0.031035023 -0.17860529 0.03841285 -0.12284877 -0.17216949 0.031495173
division:Apparel 0.16931662 0.22299728 0.6900616 -0.39433157 0.22381608 -0.4059545 0.36408567 -0.45823222 0.118587464 0.3558943 0.93115 0.66565245 0.09033683 -0.8570996 -0.35748345 -0.013751954 -0.1492808 0.19698508 0.1697566 0.31660792 0.15851863 0.1010577 0.3244617 -0.9528183 -0.1768456 0.61739177 -0.46025023 0.31395435 0.6507786 0.41063422 0.08949063 0.5580687 -0.7880564 0.28187916 -0.26546878 -0.32200974 0.23100583 0.17876841 0.37010038 -0.005105351 0.4499089 0.5377943 -0.39694592 -0.37147507 0.5306679 0.20857954 -0.26570985 -0.5216008 -0.50819504 -0.5140826 0.16216178 -0.16908397 -0.52358305 -0.039189097 -0.052345134 -0.29321665 0.03424489 0.07639454 0.015206528 -0.41279486 -0.17012018 -0.070240706 -0.04517897 0.26434
build-your-wishlist 0.3159957 0.008761077 0.64535636 -0.62432957 0.633567 -0.18114482 0.21440251 -0.3580105 0.09473202 0.2861369 0.91071737 0.7651174 0.15258795 -0.61760944 -0.2190789 0.0993827 -0.4057976 -0.10046278 0.42949754 0.3966895 0.07652083 0.02555163 -0.006647389 -0.9418434 0.027108239 0.48926416 -0.47259906 0.55587494 0.5446895 0.5049706 0.1408441 0.29365033 -0.5094389 0.0070195403 -0.07355526 -0.24693653 -0.19075446 0.4283321 0.48108613 0.19679284 0.32920936 0.31810892 -0.2071584 -0.6420243 0.5458415 0.2320071 0.01656756 -0.6256954 -0.61178935 -0.4429984 0.20855099 -0.038999036 -0.46364695 0.16547851 -0.03788111 -0.2929339 -0.17957163 -0.06479562 0.08589481 -0.35463977 -0.39854246 -0.20827286 0.0066693965 0.017946817
Spread Collar -0.20134191 0.0010917357 0.6806223 0.5944486 -0.63529485 -0.29015422 0.39958802 0.9443275 -0.027816087 -0.06218285 0.66037256 -0.19487269 0.5206713 0.24688372 -0.48853043 -0.09145799 -0.10321035 0.70453274 -0.016318569 -0.5572261 0.32048702 0.8585 0.65947926 0.097382285 0.17040929 0.01254178 0.27912086 0.8103285 0.052396428 -0.05972605 -0.16447207 -0.24786232 -0.116949536 -0.68230915 -0.28723827 -0.027117357 0.54070216 0.054600414 0.79004073 -0.387944 -0.24886157 0.0719256 -0.44986546 -0.3681359 0.08914839 0.36996272 -0.33994764 -0.17168026 0.0048033623 1.0703806 -0.1472389 0.2094339 -0.37664956 0.7868815 0.5308296 -0.39461577 0.0777142 -1.0385662 0.22269325 -0.19227187 0.5593664 -0.68423593 -0.34770638 -0.43057492
Storage & Brewing 0.48226133 -0.3762791 0.22957732 -0.3837949 0.17262001 -0.12277143 -0.40896106 0.3120843 0.088596255 0.4597694 0.609732 0.56320244 0.15450738 0.17464975 -0.18700291 0.5103985 -0.6769437 0.5735835 0.18621005 0.036815017 0.48545906 0.36869308 0.6695107 -0.44523612 -0.2640139 0.939164 -0.505393 0.30963928 0.0873739 0.20437293 -0.5890332 -0.42359114 0.2041539 -0.58794045 -0.2970205 0.21013702 0.03622872 0.8426894 1.2457547 -0.5798196 0.025457187 0.20096904 -0.40685678 -1.0695267 -0.018367259 0.5568214 0.2340087 -0.60744524 -0.3821489 0.05354468 0.37925047 0.098406106 -0.5487264 0.43086264 0.47364295 -0.1898321 -0.23051195 -0.30778018 0.051871166 -0.4715452 -0.2388202 -0.81952417 -0.8008826 0.0072875083
Solid -0.27830637 0.32891527 0.19715092 0.45172483 -0.47936425 0.070525505 0.41241816 0.7668143 0.27333048 -0.16963978 0.2032508 0.06990407 0.5563498 0.25203553 -0.7266747 -0.16885577 -0.063814834 0.75424093 0.1471581 -0.45945624 0.23256287 0.5759108 0.4563063 -0.09850692 0.20492369 -0.31171784 0.35388356 0.839008 0.6411641 0.29085103 -0.1651465 0.14072776 -0.6257334 -0.42542514 -0.06739488 -0.014548417 0.16512491 0.5207193 0.49671566 -0.31818345 0.67678374 -0.2020699 0.0012830858 -0.22697437 -0.28725347 0.35171804 -0.08685845 -0.25459024 -0.2917021 0.6013112 0.15336871 0.076267555 -0.16632678 0.55355006 0.54312295 -0.2546938 0.079625905 -0.48752677 0.40928638 -0.46979767 0.65482223 -0.3795368 -0.22548527 -0.26870885
Unisex 0.42958322 -0.36935148 0.64148 0.039441485 0.49007177 -0.5244598 -0.23643942 -0.031914193 -0.14637361 -0.025111398 0.33137637 -0.18956335 0.44353765 0.013475797 -0.14371166 -0.039222185 -0.91262984 0.36968058 0.41830513 0.422417 0.18726507 0.580458 0.27460283 -0.15289159 -0.20216686 0.64517003 -0.0031281235 0.9203919 0.35967326 0.24704084 0.00072739593 -0.8047164 -0.29228827 -0.7659201 -0.04208576 -0.30107358 -0.17422538 0.2750754 0.93198264 -0.08496993 -0.3966228 -0.34598213 -0.28289953 -1.1554023 0.1454573 0.27688825 0.15506978 -0.880204 -0.36667615 -0.029111302 0.5224612 0.4116005 -0.2622915 0.6986687 0.34462214 -0.84926355 -0.24456726 -0.5095829 0.5099043 -0.2393488 -0.2833341 -0.86681384 -0.72264224 -0.27689236
Round Neck -0.25876793 -0.06981164 0.10290698 0.55984926 -0.19768909 -0.14527634 0.4195569 0.95036024 -0.0309792 -0.15728188 0.057021677 -0.12781954 0.855045 0.17074782 -0.44063404 -0.257742 -0.3023754 0.5899688 0.46176112 0.28591898 -0.18220374 0.67771876 0.25059432 -0.35264558 -0.18578348 0.39300182 0.35275766 0.55435693 0.58344054 0.36676705 0.18084164 0.021616891 -1.0732746 -0.72766125 -0.11624273 0.38286078 -0.38873962 0.5458349 0.81708926 0.109784886 0.85811144 -0.61231947 0.16635214 0.06708289 -0.27391773 -0.012430506 0.225311 -0.9246914 -0.18358491 0.5093816 0.530604 0.104277484 0.23624974 0.7650852 0.09993865 -0.30026197 0.32363167 -0.55465025 0.4298158 -0.7744168 0.77510923 -0.17554684 -0.46636048 0.34464106
Megalodon 0.8126551 0.084873065 0.21443954 -0.11539228 0.36720446 -0.4984841 0.1842814 -0.38259143 -0.30228737 -0.19523247 0.7484053 -0.16333449 0.04968302 0.06512458 -0.06614009 -0.032049153 -0.55496323 0.17211607 0.5141034 1.0699449 0.0021962111 0.4639354 0.41257188 0.15425777 -0.5316778 1.2024659 -0.13172367 0.42179626 0.14627263 0.50977314 0.2692726 -0.46217325 -0.7882208 -0.79362655 -0.04658062 -0.39887086 -0.17711657 0.22038566 1.1503022 0.36907452 -0.46710038 -0.18283658 -0.072006494 -0.84983873 0.15680109 -0.20571423 0.23072287 -1.2617362 -0.34543395 0.3016596 0.9684074 0.2500386 -0.27463952 0.62213576 0.64222395 -0.18194288 -0.1291323 -0.68014824 0.7325536 -0.3144291 -0.3305237 -1.050351 -0.54227537 -0.40047294
garmentLength:Regular Fit -0.06917072 0.11098022 0.632019 -0.18172684 0.35853046 -0.46040446 0.25034758 -0.40595183 0.12883475 0.5199557 0.67178106 0.45515248 0.16193724 -0.83193094 -0.20254935 0.07837122 -0.14202103 0.43967748 0.11449509 0.3742716 0.13223618 0.21368217 0.12541877 -0.85239744 -0.13906772 0.36065125 -0.3025419 0.49908766 0.7890174 0.3183569 0.07863074 0.7063095 -0.71573985 0.14908068 -0.104137674 -0.2983494 0.08162736 0.33920708 0.2267136 0.12302646 0.7065329 0.6882821 -0.37038174 -0.288203 0.7577101 0.3941907 -0.30529773 -0.5188312 -0.61517805 -0.11087222 0.1291802 -0.1351812 -0.41531447 0.09924262 0.16553868 -0.33062467 -0.06363298 0.13224079 -0.06542522 -0.42964408 -0.19601855 -0.057359055 -0.24096875 0.24907592
sizeguide:top 0.24303408 0.053589348 0.6158503 -0.49933216 -0.13664998 -0.30433747 0.6015813 -0.106844276 -0.21484801 0.33995095 0.98220414 0.5647182 0.18551615 -0.91232735 -0.33030117 -0.11835988 -0.23689884 0.4863156 0.18187602 0.13628899 0.104378775 0.19651568 0.552021 -0.53633624 -0.03518886 0.6734229 -0.3626598 0.5407039 0.51537776 0.2836018 0.036389977 0.62581986 -0.5436852 0.1689984 -0.53090656 -0.3856296 0.6538517 0.24701175 0.6402927 -0.45451912 0.3916484 0.4528717 -0.26507926 -0.43585312 0.6045232 -0.012460974 -0.21476747 -0.50937897 -0.09251837 -0.5576035 0.13888936 0.2500489 -0.38448125 0.01959717 0.13392319 -0.10073523 0.044905312 0.27096233 -0.1711908 -0.31657028 -0.41610256 -0.27590284 -0.08676013 0.09801516
HCM 0.7652802 0.5713143 -0.14492083 -0.098341584 0.052643947 -0.31471556 0.52227175 -0.2114884 -0.14695765 -0.08586671 1.0476674 -0.044111885 -0.13978386 0.16882838 -0.19477539 0.1836091 -0.063589 0.2661113 0.33248645 1.0659475 -0.09406094 0.49480477 0.62851524 0.11522038 -0.6889909 1.0640124 -0.26005384 -0.080628544 -0.1198754 0.696404 0.227936 0.19446224 -1.0487852 -0.5842794 -0.25080845 -0.38695896 0.25744855 0.40064284 1.1151559 0.17611372 -0.2149599 0.3288774 0.28593022 -0.42960083 0.11373839 -0.22809993 0.038795426 -1.1498826 -0.23642781 0.5754679 1.1856638 -0.1535988 -0.37123686 0.38842848 0.8196145 0.2678895 0.18150884 -0.64080554 0.484737 -0.54975754 -0.071208544 -0.99903804 -0.31196752 -0.6377926
rest-day 0.2043027 0.13699688 0.6650898 -0.34301195 0.295357 -0.5184041 0.56304914 0.01125693 -0.19248168 0.3979312 1.1210283 0.6578774 0.22440553 -0.35174346 -0.31879044 0.06271755 -0.33273727 -0.22894701 0.24820752 0.52656454 -0.09587667 0.001489294 0.22071807 -0.8308193 0.17162433 0.29078385 -0.40381628 0.5709803 0.45584485 0.5076712 0.35980505 0.5221193 -0.4640923 0.27197808 -0.28636512 -0.32197863 0.23092142 0.34582278 0.56543416 0.1980682 0.32784075 0.48954785 0.04097419 -0.42146868 0.4545043 0.108212166 -0.21199507 -0.5003466 -0.35680926 -0.68027735 0.47747207 0.094621554 -0.37035787 0.054324403 0.2707897 -0.07310455 0.15249683 -0.04234301 -0.15264884 -0.19579041 -0.21701568 -0.13975169 -0.08844632 0.039179772
get-the-look:I3A3P-WB57 -0.03389102 0.2996392 0.57052654 -0.29135028 0.4051539 -0.15215574 0.25230443 -0.24930423 0.26298288 0.39929628 1.0659808 0.89131707 0.25293073 -0.6371835 -0.26562896 -0.012149603 -0.26242736 -0.115186095 0.23157592 0.11775532 -0.056565676 -0.2090018 0.3710662 -0.9018653 -0.10785507 0.5295391 -0.52572376 0.22732787 0.6030722 0.36182716 0.14598756 0.38260415 -0.6537322 0.15885301 -0.41700244 -0.1818409 0.09277495 -0.13620894 0.6104757 -0.07780263 0.28704062 0.30031487 -0.08157806 -0.59972316 0.4601308 -0.13335806 -0.18543309 -0.4585333 -0.39299184 -0.45837244 0.56696826 -0.19361202 -0.52957934 0.15133625 0.050361387 -0.30503914 0.10544023 -0.07324162 0.12004516 -0.34302425 0.05137722 -0.42846158 0.256374 -0.31898028
activity: rest day 0.1677605 0.15066032 0.64503026 -0.32316893 0.31766716 -0.517419 0.5668023 -0.024407273 -0.179382 0.4304124 1.113851 0.61177576 0.27279496 -0.35673237 -0.25024503 0.073813945 -0.27486655 -0.25666985 0.20891842 0.5541016 -0.13473754 0.039317343 0.18733044 -0.79627776 0.15542793 0.26311132 -0.3738298 0.56571984 0.5172793 0.5192896 0.36171263 0.48889756 -0.4986379 0.3406386 -0.30162102 -0.29658875 0.17082894 0.33718082 0.6168696 0.21687284 0.3336115 0.5045943 0.09705187 -0.44917902 0.47576675 0.060636554 -0.20493804 -0.44474804 -0.36107123 -0.6397145 0.488567 0.046734527 -0.38543698 0.060677968 0.28127035 -0.03438773 0.14115956 0.013223477 -0.11898081 -0.22004485 -0.18518814 -0.08467455 -0.13725482 0.024555176
new-releases -0.38357627 0.082304634 0.7101024 -0.10649488 0.20297657 -0.31943697 -0.097509526 -0.22709784 0.44321012 0.54645205 0.53353953 0.43628407 0.34879306 -0.662679 -0.33739415 -0.06938704 -0.14965886 0.70538014 0.41678074 0.09157132 0.060379606 -0.1475288 0.427701 -0.5991132 -0.31129774 0.49753726 -0.2952321 0.047638323 0.5702896 0.114387 0.02969468 0.4152687 -0.7471321 0.2919054 -0.46494585 -0.41385388 0.19209942 -0.019618439 0.43703276 -0.23503083 0.5843826 0.37870896 -0.25974733 -0.68432325 0.2871547 0.26255742 -0.15521593 -0.49179983 -0.29640043 -0.09062381 0.46969062 -0.42857015 -0.42415687 0.08084626 0.09656131 -0.6971132 -0.048857316 0.034953136 -0.039873265 -0.50415206 0.25553223 -0.2403859 -0.06836416 -0.009554465
Sync App Draft -0.058220208 0.32145593 0.54766995 -0.2557512 0.4403231 -0.15767306 0.29274765 -0.23010501 0.2557347 0.39009407 0.98421746 0.8450958 0.20968027 -0.52984726 -0.21652915 0.033477567 -0.19334505 -0.26431093 0.18837416 0.15037452 -0.08544338 -0.20092896 0.3392943 -0.9690444 -0.074822485 0.41904423 -0.4912239 0.25243276 0.5797522 0.39074335 0.17071222 0.40478882 -0.6263078 0.110837914 -0.3511808 -0.13228397 0.05228922 -0.12352935 0.5781911 -0.00395778 0.26278314 0.31373116 -0.044966027 -0.58176154 0.44162592 -0.111158215 -0.1556931 -0.3860466 -0.48012114 -0.34684518 0.522087 -0.22361422 -0.55676144 0.12873404 0.09125652 -0.33697042 0.124146484 -0.07882404 0.18679781 -0.38429007 0.053540535 -0.4674446 0.25604036 -0.37898675
Resort Collar -0.19835646 0.04834016 0.6565219 0.5728695 -0.6232557 -0.2653508 0.39496943 0.8726873 -0.07520949 -0.06839493 0.6706982 -0.20292875 0.45197728 0.20956518 -0.4825678 -0.10120537 -0.12363938 0.67777246 0.021343956 -0.5367483 0.32432917 0.77978206 0.6650208 0.10397344 0.14209224 0.03445051 0.23268655 0.7841571 -0.005257479 -0.052115105 -0.19579019 -0.2329899 -0.17234865 -0.6845743 -0.31329325 -0.047556825 0.55756813 0.046152834 0.7494442 -0.34964734 -0.19328329 0.08322736 -0.48942322 -0.42390075 0.052348882 0.31798774 -0.36207062 -0.16455896 0.029654486 1.0462607 -0.19665101 0.25264817 -0.36625457 0.7355727 0.5069996 -0.3305665 0.07010521 -1.0212348 0.22829242 -0.11284815 0.5778116 -0.7021826 -0.31431028 -0.3765531
25th-jan-24 0.40734598 -0.013359888 0.43339097 -0.7341251 0.23882681 -0.19449626 0.41094455 -0.14271708 0.012556879 0.19142333 0.90286666 0.7266744 0.18462822 -0.6894648 -0.32642037 -0.188817 -0.42378384 -0.25329804 0.4695881 0.013502919 0.08782488 0.1661159 0.32347393 -0.9409966 0.05295583 0.62377816 -0.41588786 0.69457036 0.43953636 0.46375123 -0.20647728 0.15563998 -0.2112729 0.115875304 -0.23500584 -0.27264085 -0.39799425 0.16157323 0.69917595 -0.03725785 -0.069008775 0.29128993 -0.114756525 -0.7887227 0.35611594 -0.01110102 -0.033679385 -0.24609666 -0.1448656 -0.56484294 0.37831485 0.1875555 -0.5846272 0.37500176 -0.072423525 -0.41956803 -0.1657154 0.19478816 0.22756398 -0.25924936 -0.3093165 -0.523844 -0.051825162 -0.1712451
INTL-29/02/24 -0.0768482 0.26312417 0.46660447 -0.29453123 0.43513894 -0.17023428 0.33017772 -0.20027216 0.20604031 0.40096515 1.023144 0.8749742 0.23672846 -0.49845612 -0.20390445 0.0045367707 -0.2191432 -0.20824443 0.23221686 0.13934238 -0.08334666 -0.24451877 0.28700304 -0.95838267 -0.06703497 0.42673934 -0.49806157 0.26612362 0.6254625 0.39522263 0.25679693 0.43278384 -0.55177265 0.14932306 -0.43239376 -0.12472187 0.08443658 -0.15338385 0.61257434 -0.04353427 0.26820925 0.27553052 -0.038296714 -0.5614337 0.42515522 -0.11460214 -0.14474945 -0.423466 -0.4423225 -0.31788355 0.507899 -0.17556629 -0.5087977 0.074813835 0.043802883 -0.34365237 0.129038 -0.078420684 0.14359245 -0.38622582 0.054438774 -0.42019325 0.19807105 -0.40133983
29/02/24 0.29535267 0.12170847 0.67266524 -0.648902 0.023372963 -0.35833967 0.70971173 -0.03260583 -0.10840885 0.34644806 1.0365882 0.5765771 0.18791199 -0.64851433 -0.3093162 -0.012070181 -0.27740532 -0.25077772 0.41221958 0.09008261 -0.10565203 0.23401219 0.35553724 -0.96099126 0.09450373 0.40428898 -0.2668812 0.7940854 0.3695701 0.47664875 0.02089647 0.43757147 -0.4097242 0.118545584 -0.2924505 -0.21369003 0.19388896 0.17351075 0.55333924 0.05114689 0.11764406 0.49435404 -0.041325074 -0.46528834 0.3936011 -0.029856296 0.0006354556 -0.39191002 -0.05899565 -0.6019528 0.33936214 0.07701547 -0.4748968 0.11853414 0.19200839 -0.29254124 0.117597334 0.2589621 -0.08759741 -0.30380192 -0.2684066 -0.3649405 0.0038304788 0.024966186
25/01/24 0.30551025 -0.124642074 0.36037228 -0.69385296 0.28798482 -0.19630845 0.32241338 -0.11856202 0.0036239037 0.20448324 0.8191254 0.6866957 0.24335417 -0.6714143 -0.29607373 -0.1917139 -0.46255466 -0.122007295 0.5023395 0.059739415 0.08207558 0.12188206 0.24968068 -0.8030614 0.06631652 0.65318054 -0.4024291 0.69650835 0.42875546 0.47799563 -0.15838759 0.14005527 -0.20685671 0.13573502 -0.26024917 -0.34513772 -0.4099367 0.24454391 0.78449076 -0.16010863 -0.0035198655 0.24196917 -0.08763594 -0.78219515 0.39911136 0.037292343 -0.035980534 -0.23849168 -0.16429357 -0.49603695 0.4063204 0.14462224 -0.5655712 0.41170996 -0.123475246 -0.42280388 -0.2711018 0.1661589 0.18125427 -0.23595604 -0.3832637 -0.5027568 -0.08958766 -0.24487008
January-NPD 0.056336094 0.19668525 0.46548846 -0.25507197 0.25456372 -0.3710769 0.50956607 0.013081656 -0.032148268 0.33700925 1.0669047 0.762891 0.25584775 -0.44678858 -0.2892399 -0.13424487 -0.26611984 -0.35798877 0.22029883 0.18749829 -0.0989733 -0.07428472 0.39665473 -0.7774586 0.07753059 0.37139037 -0.45065883 0.44403088 0.5204052 0.42496637 0.16022809 0.39981428 -0.38269764 0.38420832 -0.40446198 -0.30230388 -0.03362504 -0.009275469 0.77754694 -0.03584945 0.1782268 0.38849315 0.15928182 -0.589506 0.41331193 -0.16908129 -0.2705295 -0.17779608 -0.24308856 -0.56972873 0.6732578 0.07504859 -0.4959297 0.24215715 0.20078014 -0.20523366 0.11888143 0.019439828 0.06984999 -0.1706889 -0.0118369255 -0.49418005 0.05683722 -0.36687627
Sale 0.37748533 -0.27480358 0.620275 0.15946968 0.512799 -0.47066885 -0.12967722 -0.1797039 -0.0048400806 -0.1908151 0.3208758 -0.19937682 0.5318356 -0.08917941 -0.2717333 -0.13249247 -0.90026796 0.4235656 0.5215946 0.5287311 0.14100894 0.5992527 0.31583905 -0.13370499 -0.14109942 0.5686393 0.010898475 0.90373987 0.44533157 0.3641317 0.037177246 -0.82659906 -0.44394365 -0.7559537 0.076586716 -0.48598447 -0.25912565 0.17429851 0.9659497 0.03803168 -0.44124752 -0.4681567 -0.22618593 -1.1612233 0.2135397 0.2735915 0.11637111 -0.9766477 -0.3555432 0.09499843 0.51659733 0.428993 -0.19271012 0.74695015 0.4269197 -0.77267706 -0.27189156 -0.5579342 0.7186559 -0.25466797 -0.26617044 -1.0186365 -0.6099937 -0.37238243
Slim Fit -0.37570098 0.4491081 0.1596994 0.2578887 -0.41095227 0.047003184 0.35872802 0.76572037 0.48908734 -0.0041280002 0.104956836 0.28662652 0.86409175 0.02724826 -0.72609335 -0.2897846 -0.09193727 0.7198476 0.38775554 -0.32712418 -0.11333153 0.45527944 0.37299016 -0.3506708 0.015457766 -0.19930221 0.45725197 0.7399078 0.9552399 0.52327615 -0.006606606 0.41898233 -1.0179448 -0.21448556 -0.16062734 0.09798749 -0.08708553 0.84536076 0.49550885 -0.14680101 1.2056847 -0.27539396 0.2160031 -0.16569033 -0.15530877 0.36882046 0.11268975 -0.5054812 -0.44823694 0.23769316 0.5110306 -0.10952666 -0.120715745 0.580575 0.4055842 -0.2516491 0.23480168 -0.21452647 0.38902315 -0.828516 0.7444518 -0.084253624 -0.12189539 0.045999873
t-shirts-tops 0.18831012 0.051156037 0.41722825 -0.41191167 -0.24297656 -0.23614524 0.65501463 -0.10924071 -0.16795085 0.16724066 0.9552492 0.6558639 0.034840237 -0.94472516 -0.34596825 -0.32714534 -0.1545632 0.47135493 0.13270015 -0.06764844 0.30337462 0.2509844 0.470886 -0.5298214 -0.12984885 0.6550042 -0.42577705 0.48115826 0.5354617 0.2613442 -0.1171622 0.5189643 -0.42902863 0.25315568 -0.51640385 -0.53561175 0.3279903 0.10995774 0.63487786 -0.5837315 0.34179524 0.4315706 -0.18727994 -0.4638876 0.47836253 -0.006146692 -0.32920814 -0.30247352 -0.17503004 -0.4377182 0.18870904 0.1795897 -0.49678028 0.15615802 -0.019399248 -0.38270682 -0.0807798 0.17004105 -0.053798202 -0.27873084 -0.3257249 -0.437222 0.026249142 -0.21623576
graphic-collection 0.031031897 0.17414872 0.45831636 -0.30400297 0.22540614 -0.32731774 0.5415892 0.04383773 -0.029748434 0.33975282 1.0902735 0.7126065 0.25287968 -0.4068611 -0.26026648 -0.15055375 -0.23552023 -0.33584622 0.2150546 0.18082145 -0.13982798 -0.04072318 0.3599157 -0.7700992 0.021565631 0.39296544 -0.42663535 0.42959884 0.5155952 0.39806378 0.15478657 0.3494572 -0.42620265 0.38056648 -0.45858437 -0.3053004 -0.032813363 0.0016686427 0.7930244 -0.07169086 0.14226703 0.38829467 0.17024207 -0.64167786 0.39241862 -0.15596531 -0.2266824 -0.19575131 -0.20619218 -0.51639986 0.63988966 0.027187102 -0.5256462 0.2500952 0.15419845 -0.25454837 0.12147632 0.050843358 0.05837668 -0.23339133 -0.0028008914 -0.4268843 0.04889852 -0.3530965
category:Ss Tops 0.12282921 0.07252711 0.6922919 -0.18797542 -0.30312935 -0.4759032 0.28787866 -0.1810178 0.058907203 0.29012913 0.4864656 0.3179408 0.19403957 -0.9599769 -0.41604027 -0.33301118 -0.1453113 0.7654355 0.19613858 -0.17904349 0.35660994 0.52883446 0.71501666 -0.4381645 -0.3798612 0.5558726 -0.175349 0.51220685 0.5083975 0.16214629 -0.3994698 0.38262433 -0.5061625 0.22524165 -0.27553582 -0.58131677 0.25388 0.21694936 0.36091918 -0.55868906 0.4556131 0.5317471 -0.42345005 -0.60881686 0.62611276 0.28094125 -0.17878437 -0.28805932 -0.11608648 -0.26582116 0.13322297 0.07001093 -0.5275278 0.18047482 0.21295767 -0.550152 -0.023235593 0.25031108 -0.07694942 -0.39932683 -0.25864616 -0.509942 -0.19610184 0.1035417
range:Gfx Tattoo 0.043653708 0.18411517 0.4340336 -0.32255957 0.21475989 -0.32738754 0.60526943 0.042611167 -0.0827044 0.32729337 1.0961112 0.7234007 0.21829446 -0.35763434 -0.24185374 -0.113915116 -0.2327189 -0.38730088 0.25988114 0.18801716 -0.10841419 -0.06997257 0.34186122 -0.83645767 0.08920344 0.3986599 -0.44530478 0.394814 0.47883317 0.44726905 0.19853087 0.32952708 -0.39751866 0.36560637 -0.47956172 -0.29261345 -0.0047911787 -0.048408866 0.78122956 -0.08349408 0.06908099 0.36515048 0.14568916 -0.61302936 0.25238052 -0.18059108 -0.22458111 -0.19080935 -0.19699533 -0.54103535 0.64704925 -0.0050624576 -0.5222949 0.17156708 0.10706297 -0.26250842 0.093759194 0.062128223 0.10065497 -0.21969615 0.015506373 -0.38075945 0.03871732 -0.35229406
sizeguide:bottom -0.0033906773 0.3069134 0.64786714 0.2499733 0.40825287 -0.7837881 0.056694686 -0.26166296 0.24245705 0.09874888 0.6288398 0.59448326 0.25512448 -0.18625078 -0.4009463 0.00095271703 -0.24120894 -0.23193996 0.24325046 0.6095123 0.10714156 -0.019447522 0.35078222 -0.946316 -0.02871352 0.31447968 -0.3476436 0.23423497 0.41959697 0.5259208 0.29845023 0.31382108 -0.69380236 0.32873335 0.13466892 -0.21062315 -0.23815633 0.37619847 0.30212295 0.4650656 0.3989877 0.4325256 -0.17029454 -0.2981512 0.16926035 0.35776827 -0.23663485 -0.29936936 -0.7352752 -0.31937537 0.53061587 -0.45719144 -0.5310561 0.048837967 0.061724395 -0.25180387 0.062021084 -0.43046343 0.31606454 -0.4582357 0.26635206 -0.12994783 -0.22046396 0.12801045
garmentRise:High Support 0.0071785655 0.2792889 0.61207527 0.2942198 0.3550031 -0.8007196 0.07526377 -0.21567354 0.22430246 0.10346039 0.6196717 0.6014473 0.27170983 -0.23439585 -0.45287925 -0.064604476 -0.25281894 -0.20978017 0.22297268 0.5950164 0.10436634 0.031769287 0.401471 -0.94067377 -0.0154979 0.3395521 -0.3081778 0.25624797 0.44280434 0.5564196 0.2571836 0.33273566 -0.68568796 0.39460585 0.09343897 -0.2348745 -0.26789212 0.3777819 0.3280421 0.42827937 0.4002604 0.42222515 -0.18165237 -0.264785 0.17541325 0.3630408 -0.29778865 -0.2517744 -0.71268934 -0.3548104 0.56945693 -0.41168886 -0.5420769 0.0961317 0.018158942 -0.25923824 0.07951435 -0.41281945 0.31924197 -0.42813045 0.2934426 -0.1430683 -0.2751017 0.11407955
Men 0.38089085 -0.2680056 0.6622339 0.13515946 0.57143366 -0.50573736 -0.147887 -0.10520768 -0.007050071 -0.12159998 0.37355968 -0.22361933 0.5836415 -0.08972005 -0.23066568 -0.31089306 -0.8992324 0.35895306 0.46478158 0.53066283 0.13425711 0.61217016 0.31608152 -0.07745475 -0.15781027 0.55849004 0.08488002 1.0116589 0.48709005 0.34069535 0.06474225 -0.7708098 -0.48548144 -0.7230608 0.10054937 -0.47219577 -0.23846069 0.30364347 0.9310023 0.097403914 -0.32476676 -0.4968414 -0.27730614 -1.2562059 0.29050964 0.2600951 0.107354745 -0.89921856 -0.41546518 -0.055161197 0.6475874 0.40479192 -0.13280834 0.8269325 0.3089764 -0.7895656 -0.20513247 -0.6400613 0.71176386 -0.22911093 -0.23931623 -0.8712824 -0.52253175 -0.30437422
Black -0.115212016 -0.014963691 0.3102943 0.60864085 -0.352164 -0.109256774 0.41655344 0.81068027 -0.16143182 -0.39844805 0.36266938 -0.18188749 0.39355743 0.3218109 -0.39687842 -0.18571426 -0.21444184 0.5932319 0.11511826 -0.005870087 0.14959753 0.68875134 0.44909158 0.049136184 0.074410476 0.15411413 0.15615904 0.6713848 0.17225334 0.017726094 -0.07748104 -0.19073594 -0.6119313 -0.82023394 0.011039712 0.16339938 0.043176275 0.26598048 0.7582494 -0.11178883 0.26478636 -0.27591315 -0.14676721 -0.16696712 -0.2099183 -0.014949595 -0.13418457 -0.47666112 -0.0050185574 0.8005508 0.053622376 0.34461108 0.03425002 0.7272973 0.35373816 -0.11501961 0.13927871 -0.8194211 0.42622653 -0.265394 0.5444263 -0.542374 -0.4012098 -0.11384388
Medium 0.29736716 0.1831169 0.38544545 0.04940507 0.28089648 -0.26904607 0.17525081 0.08425614 -0.10579479 -0.5092739 0.94307595 0.5627517 0.37670857 0.014467785 -0.13831289 -0.07979417 -0.34904605 0.8678331 1.1879734 -0.23084244 -0.32212737 0.72093457 0.046770357 -0.25619996 0.241308 0.36498767 -0.15086736 -0.020749768 -0.05219669 0.07581693 0.22860886 0.33034632 -0.52230096 0.15034144 -0.1681872 0.15250717 0.35718557 1.0765253 0.3868279 -0.61707854 0.50513905 0.43169326 0.3137267 -0.48197865 0.7112921 -0.007247004 0.111872315 -0.6015105 0.15416202 0.58616346 0.41262195 0.11424924 -1.4068027 0.35941797 0.46532828 -0.06674464 0.028768087 -0.4680028 0.39977688 -0.7680889 0.21736555 -0.09448309 -0.10515698 -0.6419692
NAM-11/07/24NPD -0.19977948 -0.05852519 0.6461013 -0.10822603 -0.03572302 -0.40565652 0.27809858 -0.038089987 0.12928803 0.32592595 0.63532466 0.291912 0.2683387 -0.5668219 -0.45778888 -0.15925764 -0.0982012 0.7472605 0.54211164 0.21165323 0.1805369 -0.040755752 0.59007436 -0.53276485 -0.0153233865 0.54803073 -0.2472697 0.13495986 0.47778565 0.108087726 0.03306023 0.3903165 -0.57580924 0.40484196 -0.5654214 -0.53316766 0.14647765 0.0849337 0.68737686 -0.30275473 0.5215942 0.38362932 -0.20810938 -0.5789623 -0.061418615 0.11082644 -0.24375744 -0.33731744 -0.0006717015 -0.17558958 0.35481253 -0.12458574 -0.33510235 0.17888747 0.0042496575 -0.5653348 -0.13762063 0.18956949 0.07465406 -0.39440912 0.34554908 0.033531 -0.41594613 0.19517933
Coffee & Mug Bundles 0.47715798 0.7606523 -0.38474795 -0.16788666 0.27067313 0.20675433 0.19925477 0.014129654 0.33608806 -0.21380302 0.7813337 0.21636815 0.15622087 0.08232172 -0.5551257 0.20527016 -0.0035001102 0.5662974 0.19417806 0.60349977 -0.12133946 0.6911152 0.7399933 -0.14967562 -0.6665884 0.6150225 -0.3736747 -0.2697067 -0.096164875 0.77432686 -0.36423767 0.24581371 -0.9041994 -0.2511822 -0.31794947 -0.37312168 0.32527068 0.9616426 1.2203866 -0.25772938 -0.060444165 0.39673057 0.31055692 -0.47141382 0.04490947 0.15260267 -0.30974856 -1.0014708 -0.22758226 0.29388934 1.0122144 -0.38304925 -0.4162076 0.43843707 0.590028 0.1597884 0.026128009 -0.5040094 0.15962599 -0.645965 0.06787589 -0.73021895 -0.16751796 -0.77333266
Long Sleeves -0.09286282 0.03423664 0.23749362 0.52527237 -0.2696802 -0.006820619 0.45311853 0.74382657 -0.1399582 -0.4514031 0.35378194 -0.1454202 0.4017638 0.33324742 -0.40660962 -0.21799338 -0.22068197 0.5316944 0.12285216 0.057561964 0.115277335 0.6137493 0.42180103 0.03606522 0.058573287 0.12752269 0.15176876 0.6750809 0.19650301 0.054486345 -0.006192546 -0.16717884 -0.6612486 -0.77411157 0.052782826 0.16880715 -0.060008723 0.31883895 0.679558 -0.13755406 0.3122236 -0.2772329 -0.09169544 -0.1611228 -0.21743014 -0.044215225 -0.09180837 -0.48538724 -0.1504065 0.7658719 0.077449106 0.33984113 0.102121904 0.66004956 0.3375918 -0.07725219 0.13133883 -0.77540416 0.52102095 -0.30303323 0.4689195 -0.5420383 -0.40324202 -0.14795753
Comfort Fit -0.2300043 0.018454464 0.13702357 0.5397808 -0.112587295 -0.050557528 0.42156544 0.88508624 -0.036038917 -0.2596877 0.15875058 -0.05258386 0.822367 0.13873062 -0.4282373 -0.31685284 -0.33813676 0.54544973 0.45396343 0.4167707 -0.16244361 0.58350515 0.3220058 -0.34172884 -0.17050323 0.4018096 0.27741468 0.5559209 0.54940665 0.3553279 0.24137095 0.023469465 -1.1571443 -0.6979448 -0.03995899 0.4018631 -0.44636896 0.6103489 0.84020543 0.14301993 0.912765 -0.5487284 0.18742459 0.04506879 -0.3143569 -0.08586508 0.25240913 -0.92981136 -0.2949673 0.473168 0.5295337 0.18486802 0.28189787 0.7447566 0.095758155 -0.23852842 0.24170983 -0.52461636 0.55849844 -0.79689246 0.7150056 -0.26079434 -0.430979 0.2945309
Classics 0.39832512 0.2875644 0.40694726 0.12237066 0.70227236 0.2807685 0.3613079 0.42897186 -0.0144787375 0.6894725 0.7580915 -0.07821182 0.16668276 0.10282325 -0.015823497 0.21976621 -0.40656176 0.61082923 -0.07350084 0.52435625 0.19658643 0.89169747 0.8482883 -0.34234336 -0.37491265 0.39679715 -0.29763043 0.7477133 -0.51582384 0.9314063 -0.17465828 0.24758619 -0.40609777 -0.26290935 -0.52142423 -0.32756025 0.49409443 0.57403976 0.83651793 -0.7110955 -0.48679954 0.53063816 -0.06612991 -0.8509311 -0.013128947 0.34771752 -0.18246275 0.04467039 -0.55376095 0.08357037 0.6637173 -1.0150251 -0.31213924 0.48430127 -0.0700437 0.41708222 0.53917056 -0.9521429 -0.012793653 -0.87579805 -0.05454553 -0.57113665 -0.6746125 -0.16552837
Women 0.3515155 -0.2494399 0.65963817 0.15853788 0.6245842 -0.4872643 -0.12909092 -0.11210529 0.007138103 -0.11925235 0.37343994 -0.22567447 0.63253355 -0.0811144 -0.2645832 -0.30423588 -0.90561396 0.33827168 0.470612 0.52898216 0.11615708 0.6176124 0.29176134 -0.09291139 -0.11752375 0.57086384 0.032160006 0.9756013 0.4120606 0.36535117 0.10142077 -0.75419337 -0.51262957 -0.70509213 0.19249026 -0.46959874 -0.25786623 0.2580655 0.9221764 0.05719947 -0.3639417 -0.48738626 -0.25476572 -1.1945684 0.324185 0.23229247 0.114966884 -0.880801 -0.41645935 -0.026455872 0.66373557 0.38914075 -0.13459425 0.80534387 0.3285792 -0.7788896 -0.25217402 -0.60111403 0.6762072 -0.23987225 -0.2605409 -0.91622275 -0.5171497 -0.31274366
Blue -0.08402078 0.030876853 0.2837309 0.57138157 -0.33986682 -0.047341987 0.36049512 0.77685463 -0.116580695 -0.3774593 0.35369447 -0.19911738 0.4586595 0.32301763 -0.34251654 -0.19581106 -0.20442756 0.5082054 0.09601961 -0.056519397 0.09526149 0.6711805 0.44747016 0.066931516 0.008763952 0.16529523 0.19748998 0.65737325 0.11001542 0.05261525 -0.019530065 -0.22927873 -0.6264252 -0.7805937 0.032207835 0.2221879 0.0514003 0.34920067 0.701318 -0.115673706 0.23073155 -0.27289492 -0.14374533 -0.14203483 -0.1273516 -0.018503126 -0.1190255 -0.463013 -0.073374435 0.7767246 0.0663389 0.34192234 0.051872987 0.74533975 0.31659833 -0.06700991 0.14973499 -0.7971983 0.4530983 -0.2751892 0.48724478 -0.52697074 -0.35759148 -0.11015239
Blue and Buried 0.20897275 -0.12709671 0.4852476 0.055285037 0.35919785 -0.20079255 -0.20385009 0.16021141 0.10477642 0.33689275 0.41177642 0.06343929 0.33645284 0.24266537 -0.36424732 0.20100352 -0.6910529 0.4338974 0.00084711006 0.0069982894 0.54545474 0.3361519 0.70565397 -0.45386636 -0.10058578 0.74030524 -0.5224327 0.18960555 -0.32614762 0.26688048 -0.22984436 -0.20917264 -0.00603541 -0.34810907 0.076067224 -0.1891836 0.05467347 0.43564186 0.81734604 -0.6643049 -0.53278565 0.40335253 -0.5536185 -0.69655937 0.18068694 0.23083337 0.060446616 -0.14014961 -0.4308804 0.086646564 0.28331715 -0.26263452 -0.44599703 0.3521825 0.19715565 -0.22414969 -0.16782795 -0.2728579 -0.25609848 -0.38781443 -0.34207407 -0.6669679 -0.59463614 -0.43504873
womens 0.2358608 -0.14940651 0.54134965 0.034060214 0.4331738 -0.48262054 -0.23793107 -0.06723023 0.07593919 0.19208948 0.23072551 -0.07002942 0.6062549 -0.22841328 -0.16653405 -0.3585772 -0.7274521 0.23945801 0.2887515 0.3361706 0.025193559 0.45486057 0.16998619 0.047132708 -0.30116063 0.33703887 0.096643075 0.82028806 0.51805264 0.3525819 0.040903773 -0.5329156 -0.4222044 -0.30606282 0.025192374 -0.56631947 -0.1709599 0.26406547 0.62777185 -0.10175068 -0.17839283 -0.30041805 -0.095521145 -1.1703881 0.6257569 0.39737052 0.09924839 -0.6932527 -0.43943378 -0.24721964 0.73010325 0.32154402 -0.242453 0.5463798 0.41866344 -0.7624855 -0.1873842 -0.33987522 0.35086828 -0.1715918 -0.48632517 -0.9250838 -0.16967058 -0.41674504
filter-colour:Black 0.056738615 0.17267634 0.4253632 -0.08491979 0.254056 -0.50482583 0.52167964 -0.013507572 -0.18642966 0.39473015 1.005692 0.5676268 0.16961603 -0.20878579 -0.21379383 -0.17575422 -0.16061853 -0.2035781 0.05174376 0.43160975 0.08884058 0.07998794 0.00052124646 -0.6519289 -0.027939854 0.26837638 -0.51092803 0.30208972 0.5165674 0.4599677 0.28677565 0.33552492 -0.4379781 0.5851925 -0.25056934 -0.43127382 -0.11731041 0.18287158 0.5707431 0.07173523 0.18755691 0.53088766 0.09032869 -0.51518935 0.23229255 0.14722352 -0.44871104 -0.20546678 -0.49986565 -0.4660842 0.555787 -0.0670684 -0.4831507 0.07237069 0.15591682 -0.30145845 0.036125418 -0.09388363 0.02903838 -0.24008988 -0.00773509 -0.15844883 -0.119832784 -0.15783887
graphics 0.09683816 0.18455677 0.4335239 -0.2596341 0.17235239 -0.31887072 0.54789025 0.07953663 -0.040715143 0.33691952 1.0199833 0.69159985 0.27908316 -0.39554325 -0.2904953 -0.13354033 -0.19288674 -0.3129918 0.23202953 0.16149548 -0.07788581 0.009912038 0.3801009 -0.7759607 0.033122104 0.38597745 -0.41467094 0.39349386 0.46176505 0.42947653 0.15719283 0.34208882 -0.35727844 0.3654083 -0.42632607 -0.31215024 -0.006397911 -0.049606033 0.73017335 -0.10853592 0.059482582 0.3780403 0.12440501 -0.56029284 0.37121636 -0.11488054 -0.24165277 -0.1744676 -0.21630293 -0.5372201 0.5908995 0.06355989 -0.5208064 0.19001427 0.1476443 -0.32157612 0.13449395 0.07758794 0.06428526 -0.24604727 -0.030606044 -0.39237466 0.02101509 -0.3223192
Medium Roast 0.28550306 0.1471065 0.35850438 0.031364825 0.28452748 -0.25497183 0.17501935 0.07213125 -0.10786391 -0.4809793 0.93854064 0.55317867 0.3932113 0.0010147438 -0.13428587 -0.06150206 -0.3367013 0.86077833 1.1928397 -0.20311242 -0.30700368 0.7375146 0.041425623 -0.27733722 0.23194768 0.36014786 -0.14139469 -0.0019377139 -0.027536225 0.07447684 0.21829864 0.34554005 -0.5297646 0.1569328 -0.18048216 0.14886789 0.33910936 1.0534264 0.4122492 -0.5861433 0.52648175 0.41149157 0.2911065 -0.45988896 0.69888806 -0.015062733 0.096056804 -0.5873372 0.14348324 0.5697068 0.42493874 0.10430079 -1.3981944 0.3733772 0.45690367 -0.10445859 0.023554938 -0.48188758 0.39765593 -0.7729111 0.22764552 -0.1013251 -0.09592647 -0.61974907
11/07/24 -0.22467415 -0.055639546 0.60591215 0.02147984 -0.023309946 -0.39210463 0.28121918 -0.032465428 0.070866175 0.33489782 0.61671495 0.2676746 0.29726347 -0.5569025 -0.4298238 -0.16638035 -0.07257962 0.78358954 0.53104705 0.1785994 0.2156568 -0.025306914 0.6353499 -0.5537214 -0.040055815 0.53241545 -0.20223148 0.10712903 0.49242175 0.07042458 0.033581976 0.339217 -0.49197605 0.37054685 -0.56300825 -0.5009088 0.11066511 -0.005767381 0.6766779 -0.3490553 0.48825586 0.34191176 -0.2461329 -0.5460768 -0.05457735 0.095067784 -0.24621847 -0.3438861 -0.037423383 -0.107695766 0.34810385 -0.110684216 -0.2825838 0.14805254 0.0061184107 -0.60916173 -0.1368204 0.15593177 0.08661674 -0.4600435 0.39198482 0.019135475 -0.44466236 0.16574517
NAM-11/07/24 -0.19087443 -0.07748545 0.63860273 -0.036464516 -0.06440752 -0.3806168 0.28217548 0.0031132963 0.060672928 0.31000265 0.6235519 0.25188884 0.26266614 -0.53333116 -0.45233068 -0.16409263 -0.06228013 0.7483061 0.5117647 0.16022223 0.24524105 0.023703486 0.64716524 -0.5669797 -0.044811465 0.52144307 -0.20974521 0.13860287 0.4585787 0.100005165 -0.00466605 0.33861637 -0.4711652 0.35336939 -0.5281814 -0.50337744 0.15379502 -0.012040962 0.65460837 -0.3313006 0.45497593 0.3730693 -0.24362443 -0.5338083 -0.06272409 0.11196626 -0.1970173 -0.35405263 -0.016101146 -0.13486494 0.3072535 -0.07227166 -0.31033635 0.14673966 0.0046956334 -0.61345017 -0.10925531 0.15713048 0.0832735 -0.44213834 0.3786782 0.006115446 -0.4126734 0.19874181
filter-colour:Blue -0.17025134 0.0023830773 0.55659014 -0.353458 0.07725189 -0.2625068 0.15846173 -0.21096784 0.32060692 0.47854283 0.42986384 0.4353084 0.14525267 -0.8093214 -0.3400907 -0.06145046 -0.15145855 0.6848789 0.48535755 -0.08621335 0.20652473 0.09559242 0.36045054 -0.8481178 -0.30034056 0.4338225 -0.20434362 0.34704843 0.46252036 0.18350002 -0.1294103 0.46173888 -0.51698685 0.16972777 -0.3412332 -0.39657256 0.106232636 -0.022133868 0.22158714 -0.22427748 0.4194584 0.47078824 -0.31602517 -0.510953 0.27566114 0.39226004 -0.08958695 -0.4394177 -0.23338886 -0.01967036 0.18554917 -0.2651507 -0.45490706 0.0730476 0.0039177067 -0.88715756 -0.11650873 0.20920344 -0.008295432 -0.5652969 -0.0065831486 -0.34031898 -0.08532869 -0.021335071
fit:Regular Fit -0.3294156 -0.19104129 0.42842808 -0.061298948 -0.010955414 -0.37275526 0.2212275 0.12487559 0.00014253616 0.54449505 0.6491188 0.2781518 0.2901809 -0.6173244 -0.30545884 -0.2515275 -0.13553424 0.8822513 0.21044657 0.10521512 0.16768627 0.08704292 0.29995066 -0.2422927 -0.20139223 0.4277439 -0.24336292 0.29392827 0.6167508 0.08306054 -0.011426885 0.5052378 -0.42719033 0.44404244 -0.58351713 -0.62200767 0.219194 0.086524166 0.68344855 -0.50142026 0.590702 0.49112973 -0.07217469 -0.57289696 0.41866344 0.24314791 -0.3512908 -0.29890376 -0.15465109 -0.06725373 0.47226593 0.028589359 -0.30389106 0.20917864 0.22840077 -0.5451276 -0.1392941 0.1935225 -0.17430854 -0.29960138 0.03541673 -0.24160124 -0.288548 -0.115356654
get-the-look:B9A4N-BB2J 0.044952996 0.15171747 0.24702692 -0.22948965 0.24075077 -0.21403664 0.57584053 0.050667033 -0.122156024 0.36008695 1.0888038 0.6749287 0.25318035 -0.48799992 -0.19849953 -0.15565874 -0.21415414 -0.17729545 0.015709788 0.14464395 -0.0867262 0.0585732 0.21654645 -0.62072587 -0.01626321 0.4462784 -0.46537888 0.5085509 0.5791074 0.36395767 0.1268269 0.487703 -0.41041902 0.29487684 -0.46188363 -0.20155436 0.05178156 -0.012696438 0.79131556 -0.14871028 0.18216448 0.39467674 0.12307903 -0.45122167 0.59502256 -0.16799775 -0.4108939 -0.16493268 -0.2772837 -0.34569588 0.53116876 0.1738075 -0.5210005 0.32807115 0.20856991 -0.12558286 0.097784914 0.049604684 0.052368265 -0.17316353 -0.072416626 -0.4794141 0.04317978 -0.45274928
Checked -0.06408359 0.071975514 0.65998083 0.5941207 -0.5203445 -0.25512192 0.44374275 0.77317595 -0.13808104 -0.22146356 0.7788077 -0.14746122 0.32223356 0.29510328 -0.52640504 -0.098994285 -0.15163326 0.62390906 -0.10773741 -0.46903163 0.46446568 0.7716423 0.72888726 0.07998438 0.20435259 0.037983812 0.08270583 0.83328176 -0.090444975 -0.032718897 -0.20675138 -0.25524738 -0.14011659 -0.7003209 -0.14151125 -0.099325866 0.5734537 0.038830142 0.74887484 -0.40092477 -0.32106435 0.17280625 -0.48896798 -0.43131763 0.050825525 0.24600063 -0.39377502 -0.09480845 -0.020983154 0.96428984 -0.19996935 0.32914048 -0.40661356 0.7211627 0.5915034 -0.3421165 0.056751233 -1.0076454 0.26128224 -0.038559526 0.38756788 -0.8122748 -0.37433103 -0.5330241
analis -0.3993953 0.034167692 0.58739716 -0.030066367 0.3237016 -0.21649101 -0.025607543 -0.17623548 0.3191403 0.56661195 0.54973084 0.41776374 0.29423362 -0.5400232 -0.2396713 -0.051757634 -0.13061629 0.68685484 0.31576717 0.044107933 0.14878058 -0.15598348 0.32614374 -0.5856506 -0.29216543 0.35453635 -0.2924309 0.04146892 0.6071178 0.08188796 0.09328557 0.38131198 -0.5515206 0.23653793 -0.4468857 -0.3995029 0.18529567 -0.16195516 0.37232015 -0.2379327 0.55174375 0.35995334 -0.26465794 -0.5875119 0.26705495 0.25865355 -0.11557856 -0.5550738 -0.4088582 0.065429665 0.30123934 -0.32036585 -0.31836846 0.010832454 0.14380623 -0.73505664 -0.0331038 -0.027166663 -0.07277188 -0.5157041 0.27702802 -0.20371035 -0.07342973 -0.11342098
subcategory:Crew Neck -0.14328128 0.038589127 0.60052025 0.21050516 -0.1494518 -0.57836825 0.13861273 -0.08549332 -0.030441908 0.38217568 0.46441013 0.2658738 0.38370404 -0.66971946 -0.30423778 -0.30634245 -0.18915494 0.72402865 0.08254811 0.03950937 0.2965196 0.17205682 0.7581146 -0.21932964 -0.30921224 0.4447157 -0.21570109 0.24040085 0.5878961 0.118678056 -0.07992392 0.38965404 -0.413026 0.4362695 -0.40371522 -0.6308525 0.30413455 0.11673809 0.50043076 -0.62139964 0.51143134 0.46124327 -0.3033304 -0.58156884 0.5093724 0.21775615 -0.23746595 -0.19847058 -0.22793089 -0.25801763 0.3033048 0.027702503 -0.37054875 0.063560165 0.26303536 -0.4496928 -0.0030954028 0.17133132 -0.14454964 -0.35205156 -0.06756505 -0.41285884 -0.29205087 -0.04990231
Off White -0.17814131 0.0336955 0.11676127 0.5320778 -0.074172795 -0.029516121 0.43524653 0.826747 -0.045480948 -0.3438471 0.17221588 -0.025248693 0.77519524 0.15814792 -0.40069628 -0.3299792 -0.33441332 0.5320106 0.39678064 0.4580992 -0.17324784 0.5500127 0.33541623 -0.3258548 -0.14101762 0.372667 0.22246611 0.55803263 0.528129 0.36144093 0.22424756 0.06441073 -1.215014 -0.75612926 0.032610286 0.41105667 -0.48947015 0.68544894 0.8069702 0.12820512 0.9395701 -0.5398298 0.22591987 -0.016982516 -0.27999422 -0.11039514 0.22479723 -0.9331244 -0.3584924 0.44923067 0.54640794 0.2270871 0.30958262 0.7206463 0.15072453 -0.18516041 0.25478294 -0.5129119 0.62229234 -0.78104216 0.65010303 -0.29780164 -0.44964954 0.25567305
White -0.06445898 -0.0022450436 0.2842268 0.586111 -0.29208556 -0.08732422 0.38077995 0.766976 -0.18243966 -0.43034843 0.40961546 -0.19873378 0.39483598 0.33474672 -0.40379086 -0.23599201 -0.24648878 0.55097204 0.053644177 0.01846959 0.16335608 0.6545832 0.47847313 0.05993541 0.063564956 0.1918193 0.1463358 0.6322767 0.12344511 0.014244043 -0.057657864 -0.20992325 -0.64628834 -0.80904037 0.02471205 0.19392021 -0.013677419 0.2946308 0.7629204 -0.07961675 0.25428754 -0.27629986 -0.17351858 -0.1658209 -0.2212138 -0.09157264 -0.11443766 -0.48046285 -0.05811855 0.7365851 0.034327086 0.37137124 0.062395077 0.7262318 0.32861206 -0.10007034 0.11051232 -0.82142603 0.45554918 -0.22844206 0.49027 -0.5042172 -0.41727233 -0.07840351
Bottomwear New Arrival -0.48852986 0.87973684 0.5604448 0.10354514 -0.7707567 0.00887247 0.4373804 0.8152203 0.9009429 0.15806316 0.6112337 0.6120256 0.82577306 -0.1617014 -1.1027485 -0.29307622 0.09388427 0.8761046 0.3005274 -0.9810136 0.07935116 0.39038414 0.7253635 -0.42165244 0.2111167 -0.581625 0.4960375 1.0536418 1.1013062 0.5831829 -0.24555275 0.7166364 -0.89281267 0.08727064 -0.36714762 -0.24030365 0.44968167 0.93998295 0.42691556 -0.46230885 1.2124616 0.25546983 -0.012153325 -0.48571157 0.026200106 0.7586495 -0.11282402 -0.108963326 -0.5783889 0.23213506 0.38575754 -0.29180285 -0.71318036 0.5767962 0.76444286 -0.41694245 0.17984384 -0.2617105 0.2841317 -0.82788825 0.83790374 -0.19748686 0.15227655 -0.3661992
Brown -0.27629945 0.5703327 0.54402316 0.2510731 -0.68999666 -0.07795046 0.36171117 0.7239886 0.4562927 0.10116828 0.593288 0.27124313 0.49639446 0.062618166 -0.8275978 -0.09754438 0.050380666 0.77794266 0.08445233 -0.9208282 0.31336758 0.46966705 0.6620181 -0.094628446 0.28456843 -0.49649352 0.35996622 0.93934625 0.54430956 0.24573205 -0.327979 0.25827983 -0.40533465 -0.1523912 -0.31845212 -0.2761488 0.62985575 0.43455923 0.41657355 -0.5249858 0.42069426 0.24663492 -0.28842768 -0.45774406 -0.020288521 0.61276746 -0.31336218 0.009806428 -0.24639715 0.6087224 -0.040394876 -0.06844776 -0.6003146 0.5207574 0.67353874 -0.33302864 0.054102965 -0.5586763 0.19892819 -0.35006797 0.62456405 -0.46183422 0.005169534 -0.5007596
seamtype:Seamless -0.34388787 0.010768233 0.36372212 0.066198334 0.12877655 -0.40229252 0.07585423 -0.18776436 0.2515626 0.32213652 0.45167258 0.4780495 0.29756603 -0.62900233 -0.400902 -0.0059047653 -0.20515385 0.63396966 0.4686334 0.21463127 0.16260615 -0.24539693 0.5510276 -0.7376105 -0.04117462 0.5875697 -0.2524496 0.11109298 0.45245913 0.16643889 0.16763046 0.49255288 -0.5499774 0.21671674 -0.44951344 -0.22843584 0.13915758 0.015687829 0.53418106 -0.1814378 0.48846415 0.30271843 -0.30438763 -0.3193675 -0.047027614 0.2257777 -0.24877426 -0.35945848 -0.25481218 0.014358748 0.4267558 -0.4000003 -0.36373076 0.052694052 -0.13463996 -0.63110816 -0.18480003 -0.029036429 0.24149269 -0.5487437 0.4143959 -0.19628868 -0.2744914 0.03652497
Pink -0.09521681 0.09776788 0.65160704 0.57314193 -0.54109967 -0.25990862 0.45827913 0.7670733 -0.112092406 -0.21160585 0.7698321 -0.13857262 0.28787827 0.28631604 -0.5041184 -0.093698874 -0.11271961 0.6388265 -0.08177152 -0.50215673 0.43659106 0.73928344 0.676918 0.11406499 0.19265623 0.036943816 0.08907898 0.8497191 -0.070482634 -0.08739436 -0.24143076 -0.25713414 -0.14879684 -0.704839 -0.18639198 -0.10247989 0.5841084 0.037797168 0.7091069 -0.42217168 -0.2948716 0.1731865 -0.509377 -0.4647319 0.08485731 0.2661687 -0.40959632 -0.09949701 0.020988422 0.9678595 -0.25178733 0.3116771 -0.42396843 0.694967 0.60924876 -0.3275738 0.05987026 -0.9979539 0.25480637 -0.013072714 0.38995206 -0.77287275 -0.36184222 -0.52427876
DF-GTL -0.1495251 -0.13471425 0.6290674 0.03681453 0.07678434 -0.5734341 0.35184327 0.06837395 -0.027492642 0.18328324 0.74678755 0.3671298 0.071990855 -0.31884882 -0.5070993 -0.16342089 -0.06112155 0.72697735 0.4472133 0.5057037 0.38210225 0.041235067 0.23970611 -0.56633407 0.01609062 0.3971307 -0.36590683 0.10826883 0.4180799 0.24697164 0.2747445 0.35752946 -0.4660698 0.46845552 -0.34542346 -0.6841935 0.08617805 0.30804235 0.5062302 -0.047879733 0.5519844 0.4138063 -0.14118287 -0.35780722 -0.14198105 0.42282757 -0.34377775 -0.46334526 -0.41369036 -0.24059926 0.25857776 -0.11997388 -0.20743951 0.018516326 -0.028409474 -0.5742693 -0.13396804 -0.2472865 0.004230432 -0.35730374 0.22139865 0.27640155 -0.47192827 0.22960559
Polo Collar -0.2071473 0.0831249 0.11925679 0.48661706 -0.056414787 -0.0133276535 0.42499143 0.80410105 -0.006517286 -0.38325146 0.15694596 -0.002488215 0.7680378 0.16254246 -0.4118601 -0.39468625 -0.32000536 0.5433626 0.42187473 0.44984823 -0.21374522 0.525059 0.34528226 -0.30802995 -0.17538013 0.36647522 0.22851883 0.5692696 0.5216244 0.34983903 0.25259772 0.05507591 -1.2220548 -0.73557794 0.024868838 0.42892316 -0.48335916 0.6914302 0.7726756 0.13596813 0.9829021 -0.5383654 0.22669698 0.012264746 -0.25701568 -0.13382971 0.21638423 -0.9215997 -0.35983366 0.39189896 0.5587811 0.25525528 0.31205195 0.7229985 0.13648635 -0.1702788 0.25050515 -0.4883588 0.61427176 -0.78133494 0.62186307 -0.25369978 -0.45282525 0.29661375
segmentation:Conditioning -0.33572647 0.05954145 0.5542405 -0.039884668 0.29204443 -0.17239875 0.046416894 -0.2288106 0.3398082 0.42259023 0.5757003 0.44828644 0.26096576 -0.58463585 -0.33475 0.026413804 -0.098802514 0.7079418 0.41579825 0.12933281 0.15039845 -0.18877655 0.4186366 -0.74570817 -0.20092212 0.47316775 -0.27983072 0.017972184 0.5650714 0.09761718 0.13605681 0.42765644 -0.61313313 0.089612365 -0.42229536 -0.24135374 0.15924917 -0.111820556 0.42146245 -0.15857445 0.5537395 0.2966415 -0.3352779 -0.43455058 0.11403316 0.19628145 -0.13583994 -0.5847339 -0.37884644 0.10783514 0.2329179 -0.33537987 -0.27668026 0.06760928 0.0010295734 -0.6552267 -0.07843009 -0.05006123 0.13085635 -0.5973202 0.38905942 -0.09983636 -0.1364758 0.018646587
garmentLength:Midi 0.16525468 0.11403939 0.2582773 -0.095047295 0.0047412766 -0.16930863 0.65731496 -0.118612856 -0.26270422 0.014441357 1.0841187 0.70842546 0.122772455 -0.6925857 -0.3119775 -0.1928421 -0.19165522 0.43447188 0.110985205 0.24491525 0.31732017 -0.112464786 0.6265426 -0.47168323 0.055830214 0.7345776 -0.5536275 0.11732524 0.58949554 0.25060427 0.21496658 0.5286985 -0.39726737 0.27086565 -0.64620477 -0.38131395 0.36109895 -0.018345654 0.88333005 -0.51153463 0.3950505 0.20163754 -0.17059155 -0.29575157 0.15764397 -0.23041928 -0.47595567 -0.38947874 -0.24447551 -0.38862637 0.20419216 0.24961479 -0.31685513 0.078255095 -0.12784189 -0.088419266 0.011347614 -0.056057014 0.14383176 -0.28590667 0.0010209164 -0.19775273 -0.11900936 -0.24464716
Bagged 0.28687912 0.1681065 0.32516554 0.07557198 0.30173093 -0.23261602 0.16885214 0.07353758 -0.13099287 -0.46854228 0.9102793 0.56919765 0.3319767 -0.009781724 -0.118949726 -0.063756764 -0.32457438 0.8350136 1.1522368 -0.19217975 -0.31196114 0.72546446 0.06445147 -0.29315984 0.2145701 0.36957982 -0.13635 0.0020053964 -0.08215736 0.059677426 0.2453155 0.31935132 -0.5018339 0.14139776 -0.18052205 0.12442227 0.31501085 0.99492025 0.36901242 -0.57924527 0.46870822 0.41693404 0.26862434 -0.49011514 0.6634387 0.017404374 0.085917376 -0.53514975 0.11588955 0.54912823 0.41417724 0.10585921 -1.3495275 0.36518726 0.4327244 -0.111094266 0.017527891 -0.48042616 0.39407933 -0.7487686 0.2076817 -0.07794473 -0.101524726 -0.5896477
7.11.24 NPD-womens boost 5 -0.24582087 -0.12847278 0.5263475 -0.02202025 0.012414201 -0.3561491 0.3455392 0.06627536 0.013778977 0.32036164 0.6744433 0.2959057 0.27524525 -0.4671812 -0.4469409 -0.16843536 -0.09448691 0.7150495 0.54743314 0.17294893 0.18727463 -0.0068661873 0.53971857 -0.5866761 0.012675948 0.50018656 -0.20275424 0.16889504 0.47249877 0.11303729 0.102704205 0.3546381 -0.4023026 0.3407772 -0.56095654 -0.5045714 0.07750122 -0.00518835 0.6916387 -0.26448658 0.44265127 0.3477675 -0.14934143 -0.49614537 -0.123247884 0.1079715 -0.20411731 -0.34050477 -0.063281156 -0.070894495 0.34907836 -0.090531506 -0.24509066 0.18325686 -0.00037570533 -0.66937953 -0.123748735 0.10039013 0.050765008 -0.40923932 0.41563895 0.02035294 -0.43408793 0.12569004
tier:1 0.33159512 -0.0019420994 0.5904079 -0.5616619 0.18057452 -0.2616172 -0.07290867 -0.21410123 0.31547266 0.20554695 0.21962626 0.42308944 0.35156637 -0.6731494 -0.3705034 0.20226981 -0.5022386 0.22483848 0.7540999 0.09259688 0.06023805 0.20250703 0.46065032 -0.9941529 -0.04769411 0.5528905 0.044563778 0.73690706 0.118314005 0.44685465 -0.076096684 0.14360023 -0.42743105 -0.43965054 0.019970272 0.15702772 0.00336807 0.554122 0.24393193 0.1182512 0.069926396 0.14964294 -0.5249663 -0.48048627 0.19940987 0.53305763 0.38743293 -0.5984057 -0.27785498 -0.13777764 0.043991767 -0.19252776 -0.43303165 0.037246563 -0.10172305 -0.62344205 -0.16223499 0.025021613 0.30123952 -0.70783925 -0.28928304 -0.4158445 -0.22204043 0.38463566
NAM-01/08/24NPD -0.13690163 -0.12372183 0.61511296 0.028628742 0.0952347 -0.56193453 0.37500468 0.10392623 -0.022049662 0.18705262 0.7840348 0.36463296 0.10335636 -0.2674496 -0.50208944 -0.13707349 -0.0464582 0.6697586 0.4403153 0.501416 0.3189352 0.040893026 0.226869 -0.586093 0.06878314 0.3597926 -0.33796588 0.13122547 0.4205561 0.25651434 0.2742846 0.35321662 -0.45072493 0.42413712 -0.36259535 -0.627203 0.060315244 0.27889624 0.5195637 -0.04263861 0.51164067 0.40549102 -0.1024343 -0.36736846 -0.11221913 0.36889964 -0.3648676 -0.44906136 -0.3678576 -0.18334137 0.27693495 -0.083306745 -0.21172501 0.078878894 0.009585522 -0.57273144 -0.11194062 -0.20771061 0.011892436 -0.3517192 0.21859987 0.26792634 -0.4553876 0.18154086
Regular Fit -0.052033015 0.057709396 0.69388527 0.58561784 -0.50341237 -0.28322545 0.4929017 0.72434354 -0.16819362 -0.31164804 0.8349848 -0.097176515 0.18155617 0.32507178 -0.58705103 -0.14373197 -0.11947282 0.6396702 -0.0864151 -0.477511 0.47213823 0.7766333 0.71340024 0.11661126 0.24817257 0.017058715 0.037918925 0.9039986 -0.091736995 -0.093313694 -0.29083818 -0.27188894 -0.14790025 -0.73911077 -0.081123225 -0.17124012 0.562269 -0.007228955 0.75160646 -0.41547605 -0.28806087 0.19978552 -0.513921 -0.5264561 0.06093771 0.20496574 -0.45219016 -0.09443046 -0.002282075 0.9595383 -0.24457707 0.35363927 -0.4358225 0.63436383 0.65844256 -0.31692818 0.02833593 -1.0560943 0.27165213 0.02492521 0.35347325 -0.8283045 -0.40158597 -0.57491195
crop-tops 0.13705026 0.07137396 0.20185857 -0.39596558 0.15074193 -0.035310272 0.78273237 0.14890525 -0.19988598 0.08614729 1.271486 0.8240714 0.08484532 -0.4866755 -0.35745782 -0.1253006 -0.26246783 0.09463724 0.1668889 0.19676106 0.0276408 -0.08538157 0.21398392 -0.6424031 0.18178253 0.64641815 -0.5688453 0.41694835 0.4072585 0.33509082 0.28199136 0.4888109 -0.47748107 0.05353893 -0.58993644 -0.17302838 0.25944093 0.061966818 0.9698002 -0.20626539 0.21519996 0.17013815 0.09555984 -0.35342285 0.25068653 -0.28619522 -0.44063166 -0.38311014 -0.20111908 -0.32197478 0.42944327 0.28227064 -0.40461716 0.3125499 -0.029212568 -0.09085664 -0.0027493292 -0.19387598 0.11920128 -0.15412995 -0.0194738 -0.3215972 0.0405257 -0.42632157
filter-colour:Pink -0.052656285 0.08376971 0.6860401 0.15618666 -0.106560916 -0.46837234 0.19120976 -0.0952382 0.08088194 0.1734368 0.47170562 0.25189403 0.35394374 -0.45840302 -0.4645314 -0.15412197 -0.10441684 0.6106697 0.5066486 0.12974447 0.30243653 0.05035206 0.8570172 -0.54111665 -0.088843696 0.4609587 -0.14536218 0.053258184 0.36955163 0.1561866 0.02423201 0.19476177 -0.38421887 0.30064562 -0.37421688 -0.5168828 0.118598565 -0.023824478 0.49744007 -0.3328135 0.37311506 0.28306994 -0.31507942 -0.5399193 -0.12711944 0.15599015 -0.08939576 -0.35110885 -0.08178921 -0.22157714 0.25220102 -0.11949558 -0.27944008 -0.004289385 0.02715166 -0.61050403 0.0031331833 0.06806092 0.119487606 -0.514008 0.34264937 -0.06249517 -0.40189192 0.25395802
category:Shorts -0.02699732 0.19760707 0.80513287 -0.011150149 0.04080034 -0.43050143 0.18088144 0.0657235 0.20070183 0.21771574 0.56196755 0.368973 0.29187655 -0.09975803 -0.46148825 -0.045483924 -0.20136103 0.0083524585 0.58393395 0.18010187 0.07711123 -0.0386763 0.6380254 -0.7221561 0.011499606 0.27229688 -0.12960915 0.13947164 0.096744336 0.29502302 0.120063886 -0.020077223 -0.4807621 0.18552181 -0.21147624 -0.36155698 0.018903073 0.056492727 0.41666463 0.027012631 0.10619554 0.22729225 -0.07705554 -0.676803 -0.29405013 0.17806348 0.117623426 -0.3704563 -0.12443233 -0.3802836 0.52994895 -0.35315838 -0.3441283 0.023881106 0.14366928 -0.64841413 0.07822633 -0.18014975 0.10893331 -0.46264732 0.34910655 -0.26466724 -0.106432 0.08232648
Navy Blue -0.052240778 0.0077605573 0.29452923 0.5791502 -0.24801856 -0.058608644 0.42641693 0.72197384 -0.16966817 -0.49258175 0.4008114 -0.15048254 0.3500102 0.3440011 -0.41441163 -0.2539392 -0.23262422 0.5578078 0.070767686 0.04928151 0.1831088 0.6253572 0.46921828 0.042414345 0.059457228 0.19144243 0.06973056 0.66554564 0.11077907 -0.0054515437 -0.06534181 -0.211131 -0.6876726 -0.78184134 0.060741805 0.18674962 0.0054297624 0.29060048 0.7145811 -0.13307536 0.33146164 -0.2568476 -0.1429094 -0.20602554 -0.20870814 -0.11606536 -0.14813231 -0.46109167 -0.07583943 0.6959884 0.083296016 0.40458423 0.055924796 0.7038056 0.3357017 -0.07683641 0.12625562 -0.7508173 0.46102265 -0.22934362 0.4299536 -0.51821214 -0.41517383 -0.10988743
range:Vital -0.25432685 -0.0923299 0.5215051 0.0038702667 -0.011500386 -0.3667748 0.30146152 0.06001253 0.034189515 0.31110975 0.63363236 0.28437477 0.29357255 -0.468442 -0.43938738 -0.173724 -0.0923085 0.70870245 0.50857866 0.15275864 0.22505718 -0.0006918569 0.5545396 -0.56128657 -0.012775019 0.48349154 -0.22914328 0.13389699 0.44457552 0.115665 0.07304223 0.3361858 -0.39236236 0.3290101 -0.5433069 -0.46550548 0.098405346 -0.038777176 0.6876903 -0.28458247 0.43018425 0.32623813 -0.1623035 -0.50094277 -0.10438144 0.13729717 -0.2206167 -0.34059697 -0.08062253 -0.07403331 0.3455559 -0.08410429 -0.2613463 0.15235834 0.012396898 -0.6728056 -0.14304197 0.08350434 0.09994664 -0.45545608 0.40600717 -0.013672315 -0.41748425 0.10736112
Striped -0.01639754 0.064633064 0.6908222 0.60720414 -0.5044088 -0.29857215 0.46665984 0.7277124 -0.1705291 -0.27984327 0.8097673 -0.10911725 0.19767714 0.31662557 -0.5615349 -0.14145084 -0.12628597 0.64363337 -0.11734524 -0.45156112 0.48008093 0.7725502 0.71330076 0.11013442 0.24353893 0.017958386 0.05478967 0.8516042 -0.087466195 -0.08303648 -0.27398288 -0.2447558 -0.17304032 -0.7299452 -0.11050414 -0.14245653 0.5608857 0.015350667 0.7545206 -0.43457833 -0.31896982 0.19212183 -0.5231529 -0.52144223 0.055161737 0.18708177 -0.4463501 -0.111880526 0.017435703 0.94462544 -0.20532253 0.3474358 -0.44125748 0.6683035 0.64521587 -0.330053 0.041635364 -1.0367641 0.28395694 0.011196132 0.37193784 -0.79238135 -0.36427042 -0.56427366
INTL-11/07/24 -0.2276183 -0.10557835 0.49964532 -0.0362263 -0.0018477074 -0.3212874 0.3011642 0.035171095 0.02484368 0.33049726 0.6387468 0.28694195 0.2595955 -0.48186472 -0.4256137 -0.13212717 -0.082394645 0.68448806 0.5217916 0.1977577 0.24668963 -0.05214751 0.5474027 -0.5746262 0.030380169 0.4892642 -0.21378776 0.13178812 0.44520196 0.10136138 0.092933476 0.34782436 -0.41061625 0.36564085 -0.5579071 -0.49353543 0.09626822 0.0021815042 0.6889937 -0.31136712 0.41272685 0.32902706 -0.15832807 -0.47953254 -0.16021441 0.10874138 -0.17529704 -0.34028056 -0.043824937 -0.096787184 0.38113275 -0.10370385 -0.25500658 0.14540784 -0.028650677 -0.6343733 -0.15112768 0.13924767 0.079412654 -0.45058012 0.41569015 -0.03293241 -0.37028342 0.07993173
category:Crop Tops 0.10533981 0.04622963 0.23592153 -0.3737097 0.098844826 -0.034709245 0.75954586 0.16797157 -0.22819811 0.09370041 1.2696123 0.7430573 0.05893391 -0.47543883 -0.34413162 -0.16719756 -0.23700014 0.17197555 0.18355481 0.16235061 0.048315268 -0.04370651 0.23583648 -0.62635946 0.19044572 0.62547725 -0.56129545 0.42356592 0.39945498 0.2997668 0.22544506 0.46653295 -0.45386806 0.055963963 -0.6068186 -0.20700948 0.2412132 0.049014613 0.97714335 -0.22908588 0.2101351 0.21767499 0.043141972 -0.38877943 0.19059242 -0.2688269 -0.4513399 -0.36427265 -0.20436446 -0.21726948 0.39650005 0.23830305 -0.3902369 0.3072595 -0.0078109386 -0.12004889 -0.009261015 -0.17781548 0.15910089 -0.19994423 0.014352248 -0.30548975 -0.007860891 -0.43047807
7.11.24 NPD-womens boost 8 -0.040430393 0.047445465 0.5970451 0.37204823 -0.1732777 -0.5079627 0.26164135 -0.19375166 -0.07292794 0.110696964 0.47540444 0.17778048 0.3453103 -0.6646321 -0.39302585 -0.24734081 -0.08268473 0.9810408 0.24048889 0.15741463 0.4823591 0.22897048 0.9664251 -0.34139806 -0.19307889 0.5681424 -0.18146016 0.07822972 0.5807604 0.0723167 -0.077307515 0.3540729 -0.4544034 0.21888918 -0.38518766 -0.5340172 0.2861218 0.07893121 0.5668182 -0.5694483 0.59956855 0.3428008 -0.51549345 -0.4092172 0.16095744 0.11576108 -0.24793534 -0.35661608 -0.1892225 0.003753158 0.048690107 0.06973656 -0.31448463 0.07177177 0.10476401 -0.42265648 -0.040141955 0.085119046 0.15275222 -0.5262042 0.2493765 -0.085733935 -0.56115144 0.21574181
Retail-09/07/24 -0.21925351 -0.104525656 0.5099515 -0.063117765 0.008430122 -0.3265996 0.39199567 0.03535005 0.007755688 0.31784832 0.64958465 0.30316052 0.25866014 -0.5010658 -0.41115734 -0.13431416 -0.076213084 0.6537837 0.5288884 0.17128725 0.21285817 -0.019082457 0.5066454 -0.6300445 0.045786824 0.47425374 -0.21841978 0.19673946 0.47293854 0.1216072 0.1012091 0.3659727 -0.42118573 0.3198777 -0.5362491 -0.48495653 0.06750125 -0.0023218035 0.68091005 -0.25328088 0.41179764 0.32919696 -0.11988033 -0.45502117 -0.1529555 0.08683587 -0.18701722 -0.34645817 -0.04878418 -0.09504359 0.35901895 -0.0813595 -0.2483125 0.16378982 -0.0110159 -0.6522039 -0.13562518 0.1411723 0.05752739 -0.44622356 0.3877568 -0.018154426 -0.35013366 0.10201301
Shorts 0.009215579 0.16279352 0.82314587 -0.025979463 0.07502106 -0.42631364 0.123954885 0.102997795 0.2139947 0.17985553 0.58115333 0.3834392 0.29592586 -0.08270665 -0.4685078 -0.06457754 -0.2208607 -0.025869608 0.5808663 0.18312347 0.06109475 -0.05900534 0.62287116 -0.7283004 -0.0010269067 0.28262433 -0.13101651 0.14626463 0.09860347 0.2964682 0.11494725 -0.043582894 -0.46474594 0.21610752 -0.17276362 -0.3384002 -0.014116565 0.03548909 0.44043 0.053426016 0.06593741 0.21950682 -0.040536102 -0.68666863 -0.27870256 0.16566488 0.14097872 -0.34125397 -0.13262911 -0.4005881 0.52930653 -0.34057447 -0.32944813 0.038170263 0.14369811 -0.63377196 0.07494326 -0.19337897 0.14664628 -0.45235094 0.35680968 -0.25822303 -0.0670788 0.045005444
Chinos -0.47329164 0.8770958 0.5638164 0.08713753 -0.77701163 -0.0004592733 0.42616236 0.7666511 0.87672347 0.12483898 0.5941901 0.6120203 0.79556406 -0.15446354 -1.0734091 -0.30625713 0.12145895 0.8534314 0.28522384 -0.9578479 0.054975603 0.34632036 0.72604954 -0.40289333 0.20693542 -0.57090455 0.495265 1.0359507 1.0707433 0.5888426 -0.2381522 0.7124039 -0.9143715 0.09697787 -0.34508422 -0.27074534 0.42450172 0.95366937 0.37463674 -0.4716395 1.2095625 0.2530837 -0.018801356 -0.45350948 0.03543491 0.727244 -0.11966376 -0.111395836 -0.5497393 0.21237683 0.38103446 -0.31050548 -0.69712543 0.5509147 0.74773157 -0.37822458 0.19245633 -0.23796825 0.2645863 -0.79170364 0.81391716 -0.17786765 0.14196475 -0.37097424
short-sleeve 0.22709529 0.073732644 0.5300531 -0.43130714 -0.21095948 -0.29996473 0.41100517 0.05162821 0.09123804 0.294644 0.5444232 0.4210117 0.09650181 -0.7604279 -0.36060464 -0.2522003 -0.25615245 0.39387625 0.14934286 -0.25817704 0.19717798 0.65573925 0.2749781 -0.5883308 -0.33902484 0.35889617 -0.18753542 0.82078725 0.27650833 0.32606015 -0.3429024 0.3551837 -0.42660695 -0.033801276 -0.12936376 -0.38874775 0.15871637 0.2840765 0.2218646 -0.24508661 0.15816188 0.50299525 -0.17493486 -0.48324993 0.70663077 0.40037066 -0.1109634 -0.33098045 -0.22129902 -0.1875714 0.17828412 0.14106971 -0.56538296 0.30360058 0.28233564 -0.59229946 0.0350721 0.09971451 -0.15359844 -0.35220298 -0.48635954 -0.7483289 0.06061764 -0.1641478
matching-sets -0.20542496 0.29366907 0.75382996 -0.0057054427 0.3033936 -0.26589373 -0.0643476 -0.053096715 0.4687357 0.44206777 0.49903178 0.51757103 0.39096114 -0.2426268 -0.27051002 0.00594276 -0.23247713 0.13841848 0.35922727 -0.0030646625 -0.03550399 -0.062586024 0.36682394 -0.7056082 -0.3692258 0.19844133 -0.17203163 0.13681452 0.3033482 0.2652176 0.13322523 0.16330183 -0.59005034 -0.0065869964 -0.16951442 -0.21918234 0.1421745 -0.052574523 0.15788461 -0.027070675 0.22770123 0.24873956 -0.13346787 -0.66584665 0.2727955 0.32616097 0.10141216 -0.56383866 -0.4751807 -0.107377805 0.44097903 -0.41123137 -0.38884255 -0.050892822 0.25721273 -0.714485 0.19067986 -0.27044052 0.001181971 -0.55656636 0.118197516 -0.469845 0.14552566 -0.21806276
trendsetter 0.09390235 0.013913639 0.25362512 -0.38002813 0.12870632 -0.046757236 0.7484718 0.15939255 -0.19924104 0.07508244 1.2724618 0.8029133 0.07966017 -0.4562387 -0.36621523 -0.119224966 -0.26893106 0.120220736 0.22308496 0.22118013 0.028252045 -0.10728294 0.22431214 -0.63442874 0.20971203 0.6277578 -0.56444216 0.3881945 0.37764937 0.30238587 0.30523056 0.47404727 -0.4685979 0.052230954 -0.5982951 -0.17035678 0.2594366 0.09340883 0.9348565 -0.18112478 0.23091887 0.17289977 0.08155844 -0.34932342 0.17772445 -0.2511597 -0.36886328 -0.45145527 -0.19784552 -0.31386188 0.41694477 0.25966462 -0.3493887 0.29561448 -0.02079834 -0.14006983 0.008706448 -0.20179217 0.08204955 -0.16827777 -0.012738407 -0.28868628 0.008417848 -0.4014142
Bottomwear -0.44121918 0.93041176 0.54317135 0.04785232 -0.7804826 0.0026241487 0.44041348 0.79031616 0.89041597 0.11995689 0.6192579 0.627852 0.77431816 -0.1710183 -1.1113728 -0.28819168 0.10033652 0.87272346 0.31446603 -0.98181987 0.06703083 0.3637372 0.7370188 -0.38339692 0.2274798 -0.61649615 0.4982666 1.0802147 1.0995904 0.58409 -0.24553296 0.71556425 -0.9231277 0.1367907 -0.34197837 -0.27013472 0.44189167 1.0033034 0.37876025 -0.4900254 1.2303239 0.27125376 -0.0048074187 -0.47703442 -0.005046049 0.7216597 -0.12706284 -0.10255197 -0.5513451 0.20473014 0.37981707 -0.30044776 -0.71734697 0.564878 0.74606645 -0.33167902 0.17702124 -0.22703972 0.2753991 -0.82142407 0.816744 -0.20267917 0.17135079 -0.39873648
accessories 0.0947783 0.11679207 0.68232256 0.27331325 0.17094356 -0.66682804 0.40291145 0.19881769 -0.08259944 -0.12837519 0.8853598 0.48262483 0.051882133 0.0070857853 -0.50435734 -0.17935036 -0.17556192 0.38764152 0.044735156 0.6863456 0.37730387 0.29128838 0.011200758 -0.4553899 -0.029556243 0.27042055 -0.4419972 0.31216937 0.24898694 0.45292434 0.37795404 0.25772208 -0.62012905 0.10742993 0.08835804 -0.44745755 0.050346546 0.66776216 0.37945306 0.2573843 0.49132797 0.3976682 -0.14368401 -0.24301681 0.20261939 0.5256681 -0.46127877 -0.5089214 -0.8512484 -0.16704488 0.2125895 0.034651086 -0.28725085 0.10552326 0.20856369 -0.19809738 0.040320333 -0.80066454 0.054407295 -0.2814642 -0.08139669 0.045019116 -0.36362216 0.0011667357
Mens 0.38819194 0.09869748 0.67882735 -0.514216 -0.16890669 -0.24480173 0.561717 0.053474523 -0.03241758 0.13919781 0.62710655 0.2679951 0.17713024 -0.72532237 -0.43669242 0.018043688 -0.269283 0.44717643 0.38078755 -0.051945746 0.11206154 0.72046983 0.42754993 -0.83015054 -0.07517209 0.38668755 -0.037510313 1.0085593 0.20030183 0.3377212 -0.20149232 0.38416097 -0.5353153 -0.47401124 0.0069013652 -0.04222437 0.37619856 0.46489367 0.23781784 0.021762257 0.21086562 0.42659718 -0.37062874 -0.23408388 0.5483048 0.31885475 0.10486381 -0.63205725 -0.11577717 -0.038128078 -0.16264467 0.26915658 -0.36472282 0.25705025 0.29809254 -0.34952912 0.101351045 0.12548214 -0.003691194 -0.5077961 -0.38988826 -0.3973997 -0.22617249 0.32251906
garmentLength:5' 0.044167988 0.16559803 0.8279194 -0.064902924 0.042772952 -0.44657916 0.20004952 0.062221956 0.17018417 0.24557897 0.607169 0.39941955 0.29774737 -0.12406715 -0.4384172 -0.03120421 -0.20883201 -0.110431895 0.5588783 0.19141114 0.062383205 -0.030368004 0.6500263 -0.7585546 0.008899759 0.24956127 -0.13680017 0.1723422 0.14110476 0.3145057 0.106993824 -0.037291337 -0.4375025 0.19750196 -0.21356572 -0.32683414 -0.016528774 -0.009779818 0.43020085 0.030222151 0.044316117 0.2575131 -0.025776703 -0.70189583 -0.23356831 0.13927874 0.13435715 -0.3437165 -0.08389178 -0.43665782 0.5295917 -0.27630743 -0.3248553 0.033610422 0.17342219 -0.6337125 0.09084842 -0.10600668 0.10973742 -0.4291895 0.30080003 -0.28509277 -0.06843072 0.07876156
analis-boost -0.2114574 0.28288698 0.6822256 0.054470774 0.34665495 -0.30090243 -0.1589881 -0.050218496 0.46830693 0.47871104 0.44023734 0.5071279 0.3995404 -0.27571172 -0.28903526 0.0326405 -0.28838453 0.22297034 0.32980868 -0.017442813 -0.0040127505 -0.10094282 0.40770566 -0.6804484 -0.374633 0.19998655 -0.17262287 0.119309105 0.2875274 0.27094212 0.14254397 0.17340362 -0.5526773 0.026795177 -0.15063846 -0.20204869 0.18540317 -0.050298806 0.1479186 -0.07408685 0.23376587 0.27043748 -0.1954251 -0.63822293 0.29917157 0.41403124 0.069045514 -0.5532717 -0.54911375 -0.0466301 0.42385888 -0.44210014 -0.41113192 -0.070861444 0.29696822 -0.72576016 0.15655327 -0.2903333 0.0035827172 -0.59631574 0.1187585 -0.56484276 0.14614591 -0.25466064
NAM-29/02/24 0.07638756 0.22547537 0.6878695 -0.40888363 0.13183148 -0.31034672 0.18945943 -0.098086804 0.31065267 0.495383 0.3834917 0.44372958 0.31439275 -0.6144134 -0.30191988 0.18262173 -0.29899606 0.2279505 0.5080148 -0.048568103 -0.03374002 0.19121791 0.34342125 -0.97263646 -0.23949185 0.22353306 -0.02312686 0.5910548 0.21545768 0.38450983 0.056213375 0.34051242 -0.51942503 -0.22188953 -0.10286293 -0.03494707 0.3666031 0.1427998 -0.043356627 0.050450973 0.1837345 0.41341007 -0.34692404 -0.36537617 0.41786325 0.49565563 0.22706033 -0.6838385 -0.31736293 -0.15461253 0.11640386 -0.25556415 -0.3544737 -0.1507251 0.25596738 -0.6886809 0.13530721 0.04359879 -0.09730657 -0.6830826 -0.2618643 -0.46456006 0.032878533 0.1449829
